0.8101813767256354
0.9329080765509548
0.39866332268013494
-0.09352629653257505
0.5083522937255243
0.8347286236170613
0.651285717838321
0.3887311580510391
-0.735279760341148
0.7708330803914932
0.49829383865533194
-0.718344101036605
-0.42947388332569647
0.21645451855786646
-0.827084908660497
-0.9203655661468138
-0.8079533572534541
-0.6183158013403603
-0.5349771725259782
0.6160846356290147
-0.5069166973595384
0.6657539189611554
-0.2682398325842452
0.5981215509102832
-0.38333735024313886
-0.8238731706047737
-0.9685519893266813
0.06929018204065351
0.7116746334234547
0.3304319850274414
-0.8482950472804967
-0.004361122194707856
0.3889142545054025
0.9460501345062057
0.19868251453868713
-0.14663545777931986
0.5651888671843343
-0.7832879501071867
0.6458941110227185
0.45325733187350503
-0.6051770787562807
-0.5640982179943498
0.7242643722882878
-0.09474619380898475
0.18243710083649312
0.8389398784499039
-0.1788746355099441
0.047925754857799374
0.5083522937255243
0.8347286236170613
0.651285717838321
0.3887311580510391
-0.735279760341148
0.7708330803914932
0.49829383865533194
-0.718344101036605
-0.42947388332569647
0.21645451855786646
-0.827084908660497
-0.9203655661468138
-0.48506406446100847
-0.6183158013403603
-0.5349771725259782
0.6160846356290147
-0.5069166973595384
0.6657539189611554
-0.2682398325842452
0.5981215509102832
-0.8431478841155939
-0.6440897211755355
-0.7503222614562262
-0.48499106678714654
0.7116746334234547
0.3304319850274414
-0.907050902262737
-0.5097191226091745
0.5094368070260094
0.9460501345062057
0.19868251453868713
-0.14663545777931986
0.5651888671843343
-0.7832879501071867
0.6458941110227185
0.45325733187350503
-0.0923691105025789
-0.6008416408469675
0.9800905166532271
-0.7641503111258381
0.18243710083649312
0.8389398784499039
-0.1788746355099441
0.047925754857799374
0.5083522937255243
0.8347286236170613
0.651285717838321
0.3887311580510391
-0.735279760341148
0.7708330803914932
0.49829383865533194
-0.718344101036605
-0.42947388332569647
0.21645451855786646
0.21887056339725752
0.059629021562655815
-0.7454018565926052
-0.3817907038742946
-0.19095549627245256
0.8935053983290178
-0.7983072914874335
-0.7800298696546145
-0.9323489876045197
-0.420393033334163
-0.8431478841155939
-0.6440897211755355
-0.7503222614562262
-0.48499106678714654
0.9525980193737923
-0.09560905362226191
-0.907050902262737
-0.5097191226091745
0.3889142545054025
0.9460501345062057
0.19868251453868713
-0.14663545777931986
0.5651888671843343
-0.7832879501071867
0.6458941110227185
0.45325733187350503
-0.2413548827329398
-0.6377002686876642
0.2539242500830762
0.43407225677711614
-0.22638239183364606
0.808874893314982
-0.6807213638294757
-0.1945314753420091
0.3942660735093405
0.35633419250627985
0.651285717838321
0.3887311580510391
-0.735279760341148
0.7708330803914932
0.49829383865533194
-0.718344101036605
-0.9430151075598803
0.9359771940679963
-0.0970760371733631
-0.2155615214347516
-0.575824132539679
0.010311248579698118
-0.5349771725259782
0.6160846356290147
-0.5069166973595384
0.6657539189611554
-0.2682398325842452
0.5981215509102832
-0.5921010657728881
-0.7794054159297763
0.48011100472695567
0.42753307120118045
0.7116746334234547
0.3304319850274414
-0.993946304157131
-0.781969605428467
0.3889142545054025
0.9460501345062057
0.19868251453868713
-0.14663545777931986
0.5651888671843343
-0.7832879501071867
0.07962368736154668
-0.07460364350899773
-0.6051770787562807
-0.6008416408469675
0.9800905166532271
-0.7641503111258381
0.18243710083649312
0.8389398784499039
-0.1788746355099441
0.047925754857799374
0.5083522937255243
0.8347286236170613
0.651285717838321
0.3887311580510391
-0.735279760341148
0.7708330803914932
0.49829383865533194
-0.718344101036605
-0.42947388332569647
0.21645451855786646
-0.827084908660497
-0.9203655661468138
-0.48506406446100847
-0.6183158013403603
-0.5349771725259782
0.6160846356290147
-0.5069166973595384
0.6657539189611554
-0.2682398325842452
0.5981215509102832
-0.8346629415633138
-0.6440897211755355
-0.7503222614562262
-0.48499106678714654
0.7116746334234547
0.3304319850274414
-0.993946304157131
-0.781969605428467
0.3889142545054025
0.9460501345062057
0.19868251453868713
-0.14663545777931986
0.5651888671843343
-0.7832879501071867
0.6458941110227185
0.45325733187350503
-0.6051770787562807
-0.6008416408469675
0.9800905166532271
-0.7641503111258381
0.18243710083649312
0.8389398784499039
-0.1788746355099441
0.047925754857799374
0.5083522937255243
0.8347286236170613
0.651285717838321
0.3887311580510391
-0.735279760341148
0.7708330803914932
0.49829383865533194
-0.718344101036605
-0.9430151075598803
0.9359771940679963
-0.0970760371733631
-0.2155615214347516
-0.575824132539679
0.010311248579698118
-0.5349771725259782
0.6160846356290147
-0.5069166973595384
0.6657539189611554
-0.2682398325842452
0.5981215509102832
-0.8346629415633138
-0.2606187577621626
-0.26474899014189457
-0.35378690669069524
0.7116746334234547
0.3304319850274414
-0.8482950472804967
-0.004361122194707856
0.3889142545054025
0.9460501345062057
0.19868251453868713
-0.14663545777931986
0.5651888671843343
-0.7832879501071867
0.6458941110227185
0.45325733187350503
-0.6950102723314855
-0.5640982179943498
0.7242643722882878
-0.09474619380898475
0.18243710083649312
0.8389398784499039
-0.1788746355099441
0.047925754857799374
0.5083522937255243
0.8347286236170613
0.651285717838321
0.3887311580510391
-0.735279760341148
0.7708330803914932
0.49829383865533194
-0.718344101036605
-0.42947388332569647
0.21645451855786646
-0.827084908660497
-0.9203655661468138
-0.48506406446100847
-0.6183158013403603
-0.5349771725259782
0.6160846356290147
-0.5069166973595384
0.6657539189611554
-0.2682398325842452
0.5981215509102832
-0.7422320272746337
-0.08626034734040244
-0.3647431853352243
0.42753307120118045
0.7116746334234547
0.3304319850274414
-0.993946304157131
-0.781969605428467
0.3889142545054025
0.9460501345062057
0.19868251453868713
-0.14663545777931986
0.5651888671843343
-0.7832879501071867
0.6458941110227185
0.45325733187350503
-0.18372009603285067
-0.6008416408469675
0.9800905166532271
-0.7641503111258381
0.18243710083649312
0.8389398784499039
-0.1788746355099441
0.047925754857799374
0.5083522937255243
0.8347286236170613
0.651285717838321
0.3887311580510391
-0.735279760341148
0.7708330803914932
0.49829383865533194
-0.718344101036605
-0.42947388332569647
0.21645451855786646
-0.827084908660497
-0.9203655661468138
-0.48506406446100847
-0.6183158013403603
-0.5349771725259782
0.6160846356290147
-0.5069166973595384
0.6657539189611554
-0.2682398325842452
0.5981215509102832
-0.6542264606234105
0.5018417279928061
-0.26996588992232784
0.11392809462672426
0.7116746334234547
0.3304319850274414
-0.993946304157131
-0.781969605428467
0.3889142545054025
0.9460501345062057
0.19868251453868713
-0.14663545777931986
0.5651888671843343
-0.7832879501071867
0.6458941110227185
0.45325733187350503
-0.6051770787562807
-0.6008416408469675
0.9800905166532271
-0.7641503111258381
0.8101813767256354
0.9329080765509548
0.09955543288274182
-0.09352629653257505
0.88923060958194
0.8264722448579369
0.7577293457668389
-0.7796721492135953
-0.6117680609036114
0.4340935115885626
-0.294880009973012
-0.6709072770512637
-0.42947388332569647
0.21645451855786646
-0.827084908660497
-0.9203655661468138
-0.48506406446100847
-0.6183158013403603
-0.19095549627245256
0.8935053983290178
-0.7983072914874335
-0.7800298696546145
-0.2682398325842452
0.5981215509102832
-0.8431478841155939
-0.6440897211755355
-0.7503222614562262
-0.48499106678714654
0.7116746334234547
0.3304319850274414
-0.993946304157131
-0.781969605428467
0.2092655702825864
0.9460501345062057
0.19868251453868713
-0.14663545777931986
0.5651888671843343
-0.7832879501071867
0.6458941110227185
0.45325733187350503
-0.6051770787562807
-0.5640982179943498
0.7242643722882878
-0.09474619380898475
0.18243710083649312
0.8389398784499039
-0.1788746355099441
0.047925754857799374
0.5083522937255243
0.8347286236170613
0.651285717838321
0.3887311580510391
-0.735279760341148
0.7708330803914932
0.49829383865533194
-0.718344101036605
-0.9430151075598803
0.9359771940679963
-0.0970760371733631
-0.2155615214347516
-0.575824132539679
0.010311248579698118
-0.5349771725259782
0.6160846356290147
-0.5069166973595384
0.6657539189611554
-0.2682398325842452
0.5981215509102832
-0.38333735024313886
-0.8238731706047737
-0.9685519893266813
0.06929018204065351
0.2532384690980496
-0.09560905362226191
-0.907050902262737
-0.5097191226091745
0.3889142545054025
0.9460501345062057
0.19868251453868713
-0.14663545777931986
0.5651888671843343
-0.7832879501071867
0.6458941110227185
0.45325733187350503
-0.0923691105025789
-0.6008416408469675
0.9800905166532271
-0.7641503111258381
0.18243710083649312
0.8389398784499039
-0.1788746355099441
0.2927556756720221
0.5083522937255243
0.8347286236170613
0.651285717838321
0.3887311580510391
-0.735279760341148
0.7708330803914932
0.49829383865533194
-0.718344101036605
-0.42947388332569647
0.21645451855786646
-0.827084908660497
-0.9203655661468138
-0.48506406446100847
-0.6183158013403603
-0.5349771725259782
0.6160846356290147
-0.5069166973595384
0.6657539189611554
-0.2682398325842452
0.5981215509102832
-0.38333735024313886
-0.8238731706047737
-0.9685519893266813
0.06929018204065351
0.9525980193737923
-0.09560905362226191
-0.907050902262737
-0.5097191226091745
0.3889142545054025
0.9460501345062057
0.19868251453868713
-0.2639756782269176
0.5651888671843343
-0.7832879501071867
0.6458941110227185
0.45325733187350503
-0.4736944671827862
-0.5640982179943498
0.7242643722882878
-0.09474619380898475
-0.22638239183364606
0.808874893314982
-0.6807213638294757
-0.1945314753420091
0.3942660735093405
0.35633419250627985
0.651285717838321
0.3887311580510391
-0.735279760341148
0.7708330803914932
0.49829383865533194
-0.718344101036605
-0.8861500597349824
-0.45719649077898006
-0.1745268637228068
0.5010000099659248
-0.8662932250507193
-0.40336755893627474
-0.40142951232842417
0.685602963261289
0.8434314202228516
-0.07029898385012512
0.7550872210495265
-0.08222162490932072
-0.7422320272746337
-0.08626034734040244
-0.3647431853352243
0.42753307120118045
-0.3802457115570171
0.7388548932922621
-0.8482950472804967
-0.004361122194707856
0.3889142545054025
0.9460501345062057
0.19868251453868713
-0.14663545777931986
0.5651888671843343
-0.7832879501071867
0.07962368736154668
-0.07460364350899773
-0.6051770787562807
-0.6008416408469675
0.9800905166532271
-0.7641503111258381
0.18243710083649312
0.8389398784499039
-0.1788746355099441
0.047925754857799374
0.5083522937255243
0.8347286236170613
0.651285717838321
0.3887311580510391
-0.735279760341148
0.6172734587679156
0.49829383865533194
-0.718344101036605
-0.42947388332569647
0.21645451855786646
0.21887056339725752
0.059629021562655815
-0.7454018565926052
-0.3817907038742946
-0.6080326776616345
0.4669436797648123
-0.6247141366680906
0.0969998337927136
0.7550872210495265
-0.420393033334163
-0.8431478841155939
-0.6440897211755355
-0.7503222614562262
-0.48499106678714654
-0.09742372517392506
0.7388548932922621
-0.8482950472804967
-0.004361122194707856
0.3889142545054025
0.9714633940182468
0.19868251453868713
-0.14663545777931986
0.5651888671843343
-0.7832879501071867
0.6458941110227185
0.45325733187350503
-0.6950102723314855
-0.5640982179943498
0.7242643722882878
-0.09474619380898475
0.18243710083649312
0.8389398784499039
-0.1788746355099441
0.047925754857799374
0.5083522937255243
0.8347286236170613
0.651285717838321
0.3887311580510391
-0.735279760341148
0.7708330803914932
0.49829383865533194
-0.718344101036605
-0.42947388332569647
0.21645451855786646
-0.827084908660497
-0.9203655661468138
-0.48506406446100847
-0.6183158013403603
-0.5349771725259782
0.6160846356290147
-0.5069166973595384
0.6657539189611554
-0.2682398325842452
0.5981215509102832
-0.8346629415633138
-0.6440897211755355
-0.7503222614562262
-0.48499106678714654
0.1447731616673611
0.7388548932922621
-0.8482950472804967
-0.004361122194707856
0.3889142545054025
0.9460501345062057
0.19868251453868713
-0.14663545777931986
0.5651888671843343
-0.7832879501071867
0.6458941110227185
0.45325733187350503
-0.6051770787562807
-0.6008416408469675
0.9800905166532271
-0.7641503111258381
0.18243710083649312
0.8389398784499039
-0.1788746355099441
0.047925754857799374
0.5083522937255243
0.8347286236170613
0.651285717838321
0.3887311580510391
-0.735279760341148
0.7708330803914932
0.49829383865533194
-0.718344101036605
-0.8861500597349824
-0.45719649077898006
-0.1745268637228068
-0.2155615214347516
-0.575824132539679
-0.3817907038742946
-0.298966309706162
-0.17848654039277678
-0.969490436342252
0.7521661017721888
-0.7233374845345272
0.9420147311019863
-0.7422320272746337
-0.08626034734040244
-0.3647431853352243
0.42753307120118045
0.7116746334234547
0.3304319850274414
-0.8482950472804967
-0.004361122194707856
0.3889142545054025
0.9460501345062057
0.19868251453868713
-0.14663545777931986
0.5651888671843343
-0.7832879501071867
0.6458941110227185
0.45325733187350503
-0.6950102723314855
-0.5640982179943498
0.7242643722882878
-0.09474619380898475
0.18243710083649312
0.8389398784499039
-0.1788746355099441
0.047925754857799374
0.5083522937255243
0.8347286236170613
0.651285717838321
0.3887311580510391
-0.735279760341148
0.7708330803914932
0.49829383865533194
-0.718344101036605
-0.42947388332569647
0.21645451855786646
-0.9222562793016729
-0.9203655661468138
-0.48506406446100847
-0.6183158013403603
-0.19095549627245256
0.8935053983290178
-0.7983072914874335
-0.7800298696546145
-0.2682398325842452
0.5981215509102832
-0.7422320272746337
-0.08626034734040244
-0.3647431853352243
0.42753307120118045
0.7116746334234547
0.3304319850274414
-0.8482950472804967
-0.004361122194707856
0.3889142545054025
0.9460501345062057
0.19868251453868713
-0.14663545777931986
0.5651888671843343
-0.7832879501071867
0.6458941110227185
0.45325733187350503
-0.4736944671827862
-0.6008416408469675
0.9800905166532271
-0.7641503111258381
0.18243710083649312
0.808874893314982
-0.6807213638294757
-0.1945314753420091
0.3942660735093405
0.35633419250627985
0.651285717838321
0.3887311580510391
-0.735279760341148
0.7708330803914932
0.49829383865533194
-0.718344101036605
-0.42947388332569647
0.21645451855786646
-0.827084908660497
-0.9203655661468138
-0.48506406446100847
-0.6183158013403603
-0.40142951232842417
0.685602963261289
0.8434314202228516
-0.07029898385012512
0.7550872210495265
-0.08222162490932072
-0.7422320272746337
-0.08626034734040244
-0.3647431853352243
0.42753307120118045
0.7116746334234547
0.3304319850274414
-0.907050902262737
-0.5097191226091745
0.3889142545054025
0.9460501345062057
0.19868251453868713
-0.14663545777931986
0.5651888671843343
-0.7832879501071867
0.07962368736154668
-0.07460364350899773
-0.6950102723314855
-0.5640982179943498
0.7242643722882878
-0.09474619380898475
-0.22638239183364606
0.808874893314982
-0.6807213638294757
-0.1945314753420091
0.3942660735093405
0.35633419250627985
0.7577293457668389
-0.7796721492135953
-0.6117680609036114
0.4340935115885626
-0.294880009973012
-0.718344101036605
-0.8861500597349824
-0.45719649077898006
-0.1745268637228068
0.5010000099659248
-0.8662932250507193
-0.40336755893627474
-0.5349771725259782
0.6160846356290147
-0.5069166973595384
0.6657539189611554
-0.2682398325842452
0.5981215509102832
-0.7422320272746337
-0.08626034734040244
-0.3647431853352243
0.42753307120118045
-0.09742372517392506
0.7388548932922621
-0.8482950472804967
-0.004361122194707856
0.3889142545054025
0.9460501345062057
0.19868251453868713
-0.14663545777931986
0.5651888671843343
-0.7832879501071867
0.07962368736154668
-0.07460364350899773
-0.6051770787562807
-0.6008416408469675
0.9800905166532271
-0.7641503111258381
0.650985627823681
0.48141701098817336
-0.46733561466561835
0.047925754857799374
0.5083522937255243
0.8347286236170613
0.651285717838321
0.3887311580510391
-0.735279760341148
0.7708330803914932
0.49829383865533194
-0.718344101036605
-0.9430151075598803
0.9359771940679963
-0.827084908660497
-0.9203655661468138
-0.48506406446100847
-0.6183158013403603
-0.19095549627245256
0.8935053983290178
-0.7983072914874335
-0.7800298696546145
-0.9323489876045197
-0.420393033334163
-0.7422320272746337
-0.08626034734040244
-0.7503222614562262
-0.48499106678714654
0.7116746334234547
0.3304319850274414
-0.8482950472804967
-0.004361122194707856
0.3889142545054025
0.9460501345062057
0.19868251453868713
-0.14663545777931986
0.5651888671843343
-0.7832879501071867
0.6458941110227185
0.45325733187350503
-0.6051770787562807
-0.5640982179943498
0.7242643722882878
-0.09474619380898475
0.18243710083649312
0.8389398784499039
-0.1788746355099441
0.047925754857799374
0.5083522937255243
0.8347286236170613
0.651285717838321
0.3887311580510391
-0.735279760341148
0.7708330803914932
0.49829383865533194
-0.718344101036605
-0.42947388332569647
0.21645451855786646
-0.827084908660497
-0.9203655661468138
-0.48506406446100847
-0.6183158013403603
-0.5349771725259782
0.6160846356290147
-0.5069166973595384
0.6657539189611554
-0.2682398325842452
0.5981215509102832
-0.7422320272746337
-0.08626034734040244
-0.3647431853352243
0.42753307120118045
0.7116746334234547
0.3304319850274414
-0.993946304157131
-0.781969605428467
0.3889142545054025
0.9460501345062057
0.19868251453868713
-0.14663545777931986
0.5651888671843343
-0.7832879501071867
0.6458941110227185
0.45325733187350503
-0.18372009603285067
-0.6008416408469675
0.9800905166532271
-0.7641503111258381
0.18243710083649312
0.8389398784499039
-0.1788746355099441
0.2927556756720221
0.5083522937255243
0.8347286236170613
0.651285717838321
0.3887311580510391
-0.735279760341148
0.7708330803914932
0.49829383865533194
-0.718344101036605
-0.8861500597349824
-0.45719649077898006
-0.1745268637228068
0.5010000099659248
-0.8662932250507193
-0.3817907038742946
-0.40142951232842417
0.685602963261289
0.8434314202228516
-0.07029898385012512
0.7550872210495265
-0.08222162490932072
-0.5921010657728881
-0.7794054159297763
0.48011100472695567
0.42753307120118045
-0.3802457115570171
0.7388548932922621
-0.8482950472804967
-0.004361122194707856
0.3889142545054025
0.9460501345062057
0.19868251453868713
-0.14663545777931986
0.5651888671843343
-0.7832879501071867
0.07962368736154668
0.45325733187350503
-0.6051770787562807
-0.6008416408469675
0.9800905166532271
-0.7641503111258381
4.917361239360485E-4
0.8389398784499039
-0.1788746355099441
0.047925754857799374
0.5083522937255243
0.8347286236170613
0.651285717838321
0.3887311580510391
-0.735279760341148
0.7708330803914932
0.49829383865533194
-0.718344101036605
-0.42947388332569647
0.21645451855786646
-0.827084908660497
-0.9203655661468138
-0.48506406446100847
-0.6183158013403603
-0.5349771725259782
0.6160846356290147
-0.5069166973595384
0.6657539189611554
-0.2682398325842452
0.5981215509102832
-0.6542264606234105
0.5018417279928061
-0.26996588992232784
0.11392809462672426
0.9525980193737923
-0.09560905362226191
-0.907050902262737
-0.5097191226091745
0.3889142545054025
0.9460501345062057
0.19868251453868713
-0.14663545777931986
0.5651888671843343
-0.7996306948473165
0.15227582874296375
0.45325733187350503
-0.2413548827329398
-0.6377002686876642
0.2539242500830762
0.43407225677711614
0.8101813767256354
0.9329080765509548
0.39866332268013494
-0.09352629653257505
0.5083522937255243
0.8347286236170613
0.651285717838321
0.3887311580510391
-0.735279760341148
0.7708330803914932
0.49829383865533194
-0.718344101036605
-0.42947388332569647
0.21645451855786646
-0.827084908660497
-0.9203655661468138
-0.48506406446100847
-0.6183158013403603
-0.19095549627245256
0.8935053983290178
-0.7983072914874335
-0.7800298696546145
-0.9323489876045197
-0.420393033334163
-0.7422320272746337
-0.08626034734040244
-0.7503222614562262
-0.48499106678714654
0.7116746334234547
0.3304319850274414
-0.8482950472804967
-0.004361122194707856
0.3889142545054025
0.9460501345062057
0.19868251453868713
-0.14663545777931986
0.5651888671843343
-0.7832879501071867
0.6458941110227185
0.47159536470676133
-0.6950102723314855
-0.5640982179943498
0.7242643722882878
-0.09474619380898475
0.18243710083649312
0.8389398784499039
-0.1788746355099441
0.047925754857799374
0.5083522937255243
0.8347286236170613
0.651285717838321
0.3887311580510391
-0.735279760341148
0.7708330803914932
0.49829383865533194
-0.718344101036605
-0.8861500597349824
-0.45719649077898006
-0.1745268637228068
-0.2155615214347516
-0.575824132539679
-0.3817907038742946
-0.298966309706162
-0.17848654039277678
-0.969490436342252
0.7521661017721888
-0.7233374845345272
0.9420147311019863
-0.5921010657728881
-0.08626034734040244
-0.9685519893266813
0.06929018204065351
0.7116746334234547
0.3304319850274414
-0.8482950472804967
-0.004361122194707856
0.3889142545054025
0.9460501345062057
0.19868251453868713
-0.14663545777931986
0.5651888671843343
-0.7832879501071867
0.6458941110227185
0.45325733187350503
-0.6051770787562807
-0.6008416408469675
0.9800905166532271
-0.7641503111258381
0.18243710083649312
0.8389398784499039
-0.1788746355099441
0.047925754857799374
0.5083522937255243
0.8347286236170613
0.651285717838321
0.3887311580510391
-0.735279760341148
0.7708330803914932
0.49829383865533194
-0.718344101036605
-0.42947388332569647
0.21645451855786646
-0.827084908660497
-0.9203655661468138
-0.48506406446100847
-0.6183158013403603
-0.19095549627245256
0.8935053983290178
-0.7983072914874335
-0.7800298696546145
-0.2682398325842452
0.5981215509102832
-0.6542264606234105
0.5018417279928061
-0.26996588992232784
0.11392809462672426
0.7116746334234547
0.3304319850274414
-0.8482950472804967
-0.004361122194707856
0.3889142545054025
0.9460501345062057
0.19868251453868713
-0.14663545777931986
0.5651888671843343
-0.7832879501071867
0.6458941110227185
0.45325733187350503
-0.0923691105025789
-0.6008416408469675
0.9800905166532271
-0.7641503111258381
0.18243710083649312
0.8389398784499039
-0.1788746355099441
0.047925754857799374
0.5083522937255243
0.8347286236170613
0.651285717838321
0.3887311580510391
-0.735279760341148
0.7708330803914932
0.49829383865533194
-0.718344101036605
-0.42947388332569647
0.21645451855786646
-0.827084908660497
-0.9203655661468138
-0.48506406446100847
-0.6183158013403603
-0.19095549627245256
0.8935053983290178
-0.7983072914874335
-0.7800298696546145
-0.9323489876045197
-0.420393033334163
-0.7422320272746337
-0.08626034734040244
-0.3647431853352243
0.42753307120118045
0.7986265650764689
0.3304319850274414
-0.8482950472804967
-0.004361122194707856
0.3889142545054025
0.9460501345062057
0.19868251453868713
-0.14663545777931986
0.5651888671843343
-0.7832879501071867
0.6458941110227185
0.45325733187350503
-0.6051770787562807
-0.6008416408469675
0.9800905166532271
-0.7641503111258381
0.650985627823681
0.48141701098817336
-0.46733561466561835
0.047925754857799374
0.5083522937255243
0.8347286236170613
0.651285717838321
0.3887311580510391
-0.735279760341148
0.7708330803914932
0.49829383865533194
-0.718344101036605
-0.8861500597349824
-0.45719649077898006
-0.1745268637228068
0.5010000099659248
-0.8662932250507193
-0.40336755893627474
-0.40142951232842417
0.685602963261289
0.8434314202228516
-0.07029898385012512
0.7550872210495265
-0.08222162490932072
-0.7422320272746337
-0.08626034734040244
-0.3647431853352243
0.42753307120118045
0.7116746334234547
0.3304319850274414
-0.8482950472804967
-0.004361122194707856
0.3889142545054025
0.9460501345062057
0.19868251453868713
-0.14663545777931986
0.5651888671843343
-0.7832879501071867
0.07962368736154668
0.45325733187350503
-0.6051770787562807
-0.6008416408469675
0.7242643722882878
-0.09474619380898475
-0.22638239183364606
0.808874893314982
-0.6807213638294757
-0.1945314753420091
0.3942660735093405
0.35633419250627985
0.651285717838321
0.3887311580510391
-0.735279760341148
0.7708330803914932
0.49829383865533194
-0.718344101036605
-0.9430151075598803
0.9359771940679963
-0.0970760371733631
-0.2155615214347516
-0.575824132539679
0.010311248579698118
-0.19095549627245256
0.8935053983290178
-0.969490436342252
0.7521661017721888
-0.7233374845345272
0.9420147311019863
-0.7422320272746337
-0.08626034734040244
-0.3647431853352243
0.42753307120118045
0.7116746334234547
0.3304319850274414
-0.8482950472804967
-0.004361122194707856
0.3889142545054025
0.9460501345062057
0.19868251453868713
-0.14663545777931986
0.5651888671843343
-0.7832879501071867
0.6458941110227185
0.45325733187350503
-0.6051770787562807
-0.6008416408469675
0.9800905166532271
-0.7641503111258381
0.18243710083649312
0.8389398784499039
-0.1788746355099441
0.047925754857799374
0.5083522937255243
0.8347286236170613
0.651285717838321
0.3887311580510391
-0.735279760341148
0.7708330803914932
0.49829383865533194
-0.718344101036605
-0.9430151075598803
0.9359771940679963
-0.0970760371733631
-0.2155615214347516
-0.575824132539679
0.010311248579698118
-0.5349771725259782
0.5557594140137282
-0.5069166973595384
0.6657539189611554
-0.2682398325842452
0.5981215509102832
-0.8346629415633138
-0.6440897211755355
-0.7503222614562262
-0.48499106678714654
0.7116746334234547
0.3304319850274414
-0.993946304157131
-0.781969605428467
0.5094368070260094
0.9460501345062057
0.19868251453868713
-0.14663545777931986
0.5651888671843343
-0.7832879501071867
0.6458941110227185
0.47159536470676133
-0.4736944671827862
-0.6008416408469675
0.9800905166532271
-0.7641503111258381
0.6714261867350866
-0.9966074091137186
-0.007599206988201379
0.3716779911709184
0.031937261217154234
-0.9542255628128988
0.7577293457668389
-0.7796721492135953
-0.6117680609036114
0.4340935115885626
-0.294880009973012
-0.6709072770512637
-0.42947388332569647
0.21645451855786646
-0.827084908660497
-0.9203655661468138
-0.48506406446100847
-0.6183158013403603
-0.6080326776616345
0.4669436797648123
-0.6247141366680906
0.0969998337927136
0.8278636849359835
-0.6197882087199049
-0.8431478841155939
-0.6440897211755355
-0.7503222614562262
-0.48499106678714654
0.7116746334234547
0.3304319850274414
-0.993946304157131
-0.781969605428467
0.5094368070260094
0.9460501345062057
0.19868251453868713
-0.14663545777931986
-0.803761855553417
-0.16687524824293243
-0.017664305904341093
0.09109288072806232
0.058280041582114084
0.27699521390223725
0.6363353432368533
0.7494041966250073
0.650985627823681
0.48141701098817336
-0.46733561466561835
0.047925754857799374
0.5083522937255243
0.8347286236170613
0.651285717838321
0.3887311580510391
-0.735279760341148
0.7708330803914932
0.49829383865533194
-0.718344101036605
-0.6798676729217344
0.21645451855786646
-0.827084908660497
-0.9203655661468138
-0.48506406446100847
-0.6183158013403603
-0.5349771725259782
0.6160846356290147
-0.5069166973595384
0.6657539189611554
-0.2682398325842452
0.5981215509102832
-0.7422320272746337
-0.08626034734040244
-0.3647431853352243
0.42753307120118045
0.7116746334234547
0.3304319850274414
-0.993946304157131
-0.781969605428467
0.3889142545054025
0.9460501345062057
0.19868251453868713
-0.14663545777931986
0.5651888671843343
-0.7832879501071867
0.6458941110227185
0.45325733187350503
-0.18372009603285067
-0.6008416408469675
0.9800905166532271
-0.7641503111258381
0.18243710083649312
0.8389398784499039
-0.1788746355099441
0.047925754857799374
0.5083522937255243
0.8347286236170613
0.651285717838321
0.3887311580510391
-0.735279760341148
0.7708330803914932
0.49829383865533194
-0.718344101036605
-0.42947388332569647
0.21645451855786646
-0.827084908660497
-0.9203655661468138
-0.48506406446100847
0.010311248579698118
-0.19095549627245256
0.8935053983290178
-0.7983072914874335
-0.7800298696546145
-0.9323489876045197
-0.420393033334163
-0.8346629415633138
-0.2606187577621626
-0.26474899014189457
-0.35378690669069524
0.7986265650764689
0.3304319850274414
-0.8482950472804967
-0.004361122194707856
0.3889142545054025
0.9460501345062057
0.19868251453868713
-0.14663545777931986
0.5651888671843343
-0.7832879501071867
0.6458941110227185
0.45325733187350503
-0.6051770787562807
-0.5640982179943498
0.7242643722882878
-0.09474619380898475
0.18243710083649312
0.8389398784499039
-0.1788746355099441
0.047925754857799374
0.5083522937255243
0.8347286236170613
0.651285717838321
0.3887311580510391
-0.735279760341148
0.7708330803914932
0.49829383865533194
-0.718344101036605
-0.42947388332569647
0.21645451855786646
-0.827084908660497
-0.9203655661468138
-0.48506406446100847
-0.6183158013403603
-0.5349771725259782
0.6160846356290147
-0.5069166973595384
0.6657539189611554
-0.2682398325842452
0.5981215509102832
-0.8346629415633138
-0.6440897211755355
-0.7503222614562262
-0.48499106678714654
0.9525980193737923
-0.09560905362226191
-0.907050902262737
-0.5097191226091745
0.5094368070260094
0.9460501345062057
0.19868251453868713
-0.14663545777931986
0.5651888671843343
-0.7832879501071867
0.6458941110227185
0.45325733187350503
-0.4736944671827862
-0.6008416408469675
0.9800905166532271
-0.7641503111258381
0.18243710083649312
0.8389398784499039
-0.1788746355099441
0.2927556756720221
0.5083522937255243
0.8347286236170613
0.651285717838321
0.3887311580510391
-0.735279760341148
0.7708330803914932
0.49829383865533194
-0.718344101036605
-0.42947388332569647
0.21645451855786646
-0.827084908660497
-0.9203655661468138
-0.48506406446100847
-0.6183158013403603
-0.5349771725259782
0.6160846356290147
-0.5069166973595384
0.6657539189611554
-0.2682398325842452
0.5981215509102832
-0.38333735024313886
-0.8238731706047737
-0.9685519893266813
0.06929018204065351
-0.09742372517392506
0.7388548932922621
-0.8482950472804967
-0.004361122194707856
0.3889142545054025
0.9460501345062057
0.19868251453868713
-0.14663545777931986
0.5651888671843343
-0.7832879501071867
0.6458941110227185
0.45325733187350503
-0.6051770787562807
-0.6008416408469675
0.9800905166532271
-0.7641503111258381
0.18243710083649312
0.8389398784499039
-0.1788746355099441
0.047925754857799374
0.5083522937255243
0.8347286236170613
0.651285717838321
0.3887311580510391
-0.735279760341148
0.7708330803914932
0.49829383865533194
-0.718344101036605
-0.42947388332569647
0.21645451855786646
-0.827084908660497
-0.9203655661468138
-0.48506406446100847
-0.6183158013403603
-0.5349771725259782
0.6160846356290147
-0.5069166973595384
0.6657539189611554
-0.2682398325842452
0.5981215509102832
-0.7422320272746337
-0.08626034734040244
-0.3647431853352243
0.42753307120118045
0.7116746334234547
0.3304319850274414
-0.907050902262737
-0.5097191226091745
0.08782509449902876
0.5541021864896271
-0.1036606354856936
0.03804897379986094
0.5651888671843343
-0.7832879501071867
0.6458941110227185
0.45325733187350503
-0.6950102723314855
-0.5640982179943498
0.7242643722882878
-0.09474619380898475
0.18243710083649312
0.8389398784499039
-0.1788746355099441
0.047925754857799374
0.5083522937255243
0.8347286236170613
0.651285717838321
0.3887311580510391
-0.735279760341148
0.7708330803914932
0.49829383865533194
-0.718344101036605
-0.9430151075598803
0.9359771940679963
-0.0970760371733631
-0.2155615214347516
-0.575824132539679
0.010311248579698118
-0.5349771725259782
0.6160846356290147
-0.5069166973595384
0.6657539189611554
-0.2682398325842452
0.5981215509102832
-0.38333735024313886
-0.8238731706047737
-0.9685519893266813
0.06929018204065351
0.7116746334234547
0.3304319850274414
-0.8482950472804967
-0.004361122194707856
0.08782509449902876
0.5541021864896271
-0.1036606354856936
0.03804897379986094
0.5651888671843343
-0.7832879501071867
0.6458941110227185
0.45325733187350503
-0.4736944671827862
-0.09082695339319624
0.9800905166532271
-0.7641503111258381
0.8101813767256354
0.9329080765509548
-0.1788746355099441
0.047925754857799374
0.5083522937255243
0.8347286236170613
0.651285717838321
0.3887311580510391
-0.735279760341148
0.6172734587679156
0.49829383865533194
-0.718344101036605
-0.9430151075598803
0.9359771940679963
-0.0970760371733631
-0.2155615214347516
-0.575824132539679
0.010311248579698118
-0.6080326776616345
0.4669436797648123
-0.6247141366680906
0.0969998337927136
0.7550872210495265
-0.420393033334163
-0.8431478841155939
-0.6440897211755355
-0.7503222614562262
-0.48499106678714654
0.7116746334234547
0.3304319850274414
-0.8482950472804967
-0.004361122194707856
0.3889142545054025
0.9460501345062057
0.19868251453868713
-0.14663545777931986
0.5651888671843343
-0.7832879501071867
0.6458941110227185
0.45325733187350503
-0.2413548827329398
-0.6377002686876642
0.2539242500830762
0.43407225677711614
0.8101813767256354
0.9329080765509548
0.09955543288274182
-0.09352629653257505
0.88923060958194
0.8264722448579369
0.651285717838321
0.3887311580510391
-0.735279760341148
0.7708330803914932
0.49829383865533194
-0.718344101036605
-0.9430151075598803
0.9359771940679963
-0.0970760371733631
-0.2155615214347516
-0.575824132539679
0.010311248579698118
-0.5349771725259782
0.6160846356290147
-0.5069166973595384
0.6657539189611554
-0.2682398325842452
0.5981215509102832
-0.7422320272746337
-0.08626034734040244
-0.3647431853352243
0.42753307120118045
0.7116746334234547
0.3304319850274414
-0.8482950472804967
-0.004361122194707856
0.5094368070260094
0.9460501345062057
0.19868251453868713
-0.14663545777931986
0.5651888671843343
-0.7832879501071867
0.6458941110227185
0.45325733187350503
-0.6950102723314855
-0.5640982179943498
0.7242643722882878
-0.09474619380898475
0.650985627823681
0.48141701098817336
-0.46733561466561835
0.047925754857799374
0.5083522937255243
0.8347286236170613
0.651285717838321
0.3887311580510391
-0.735279760341148
0.7708330803914932
0.49829383865533194
-0.718344101036605
-0.42947388332569647
0.21645451855786646
-0.827084908660497
-0.9203655661468138
-0.575824132539679
-0.3817907038742946
-0.5349771725259782
0.6160846356290147
-0.969490436342252
0.7521661017721888
-0.7233374845345272
0.9420147311019863
-0.8346629415633138
-0.6440897211755355
-0.7503222614562262
-0.48499106678714654
0.7116746334234547
0.3304319850274414
-0.8482950472804967
-0.004361122194707856
0.3889142545054025
0.9460501345062057
0.19868251453868713
-0.14663545777931986
0.5651888671843343
-0.7832879501071867
0.6458941110227185
0.45325733187350503
-0.6950102723314855
-0.5640982179943498
0.7242643722882878
-0.09474619380898475
0.650985627823681
0.48141701098817336
-0.46733561466561835
0.047925754857799374
0.5083522937255243
0.8347286236170613
0.651285717838321
0.3887311580510391
-0.735279760341148
0.7708330803914932
0.49829383865533194
-0.718344101036605
-0.9430151075598803
0.9359771940679963
-0.0970760371733631
-0.2155615214347516
-0.575824132539679
-0.3817907038742946
-0.19095549627245256
0.8935053983290178
-0.7983072914874335
-0.7800298696546145
-0.9323489876045197
-0.420393033334163
-0.7422320272746337
-0.08626034734040244
-0.7503222614562262
-0.48499106678714654
0.7116746334234547
0.3304319850274414
-0.8482950472804967
-0.004361122194707856
0.3889142545054025
0.9460501345062057
0.19868251453868713
-0.14663545777931986
0.5651888671843343
-0.7832879501071867
0.6458941110227185
0.45325733187350503
-0.6950102723314855
-0.5640982179943498
0.7242643722882878
-0.09474619380898475
0.18243710083649312
0.8389398784499039
-0.1788746355099441
0.047925754857799374
0.5083522937255243
0.8347286236170613
0.651285717838321
0.3887311580510391
-0.735279760341148
0.7708330803914932
0.49829383865533194
-0.718344101036605
-0.42947388332569647
0.21645451855786646
-0.827084908660497
-0.9203655661468138
-0.48506406446100847
-0.6183158013403603
-0.5349771725259782
0.6160846356290147
-0.5069166973595384
0.6657539189611554
-0.2682398325842452
0.5981215509102832
-0.8346629415633138
-0.6440897211755355
-0.7503222614562262
-0.48499106678714654
0.1447731616673611
0.7388548932922621
-0.8482950472804967
-0.004361122194707856
0.5094368070260094
0.9460501345062057
0.19868251453868713
-0.14663545777931986
0.5651888671843343
-0.7832879501071867
0.6458941110227185
0.45325733187350503
-0.6051770787562807
-0.6008416408469675
0.9800905166532271
-0.7641503111258381
0.18243710083649312
0.8389398784499039
-0.1788746355099441
0.047925754857799374
0.5083522937255243
0.8347286236170613
0.651285717838321
0.3887311580510391
-0.735279760341148
0.9897256057831774
0.49829383865533194
-0.718344101036605
-0.42947388332569647
0.21645451855786646
-0.827084908660497
-0.9203655661468138
-0.48506406446100847
-0.6183158013403603
-0.5349771725259782
0.6160846356290147
-0.5069166973595384
0.6657539189611554
-0.2682398325842452
0.5981215509102832
-0.38333735024313886
-0.8238731706047737
-0.9685519893266813
0.06929018204065351
0.7116746334234547
0.3304319850274414
-0.8482950472804967
-0.004361122194707856
0.3889142545054025
0.9460501345062057
0.19868251453868713
-0.14663545777931986
0.5651888671843343
-0.7832879501071867
0.6458941110227185
0.45325733187350503
-0.6051770787562807
-0.6008416408469675
0.9800905166532271
-0.7641503111258381
0.650985627823681
0.48141701098817336
-0.46733561466561835
0.047925754857799374
0.5083522937255243
0.8347286236170613
0.651285717838321
0.3887311580510391
-0.735279760341148
0.7708330803914932
0.49829383865533194
-0.718344101036605
-0.6798676729217344
0.21645451855786646
-0.827084908660497
-0.9203655661468138
-0.48506406446100847
-0.6183158013403603
-0.5349771725259782
0.6160846356290147
-0.5069166973595384
0.6657539189611554
-0.2682398325842452
0.5981215509102832
-0.38333735024313886
-0.8238731706047737
-0.9685519893266813
0.42753307120118045
0.7116746334234547
0.3304319850274414
-0.8482950472804967
-0.004361122194707856
0.3889142545054025
0.9460501345062057
0.19868251453868713
-0.14663545777931986
0.5651888671843343
-0.7832879501071867
0.6458941110227185
0.45325733187350503
-0.18372009603285067
-0.6008416408469675
0.9800905166532271
-0.7641503111258381
0.18243710083649312
0.8389398784499039
-0.1788746355099441
0.047925754857799374
0.5083522937255243
0.8347286236170613
0.7577293457668389
-0.7796721492135953
-0.6117680609036114
0.4340935115885626
-0.294880009973012
-0.6709072770512637
-0.42947388332569647
0.21645451855786646
-0.827084908660497
-0.9203655661468138
-0.48506406446100847
-0.6183158013403603
-0.19095549627245256
0.8935053983290178
-0.7983072914874335
-0.7800298696546145
-0.2682398325842452
0.5981215509102832
-0.8431478841155939
-0.6440897211755355
-0.7503222614562262
-0.48499106678714654
0.7116746334234547
0.3304319850274414
-0.8482950472804967
-0.004361122194707856
0.3889142545054025
0.9460501345062057
0.19868251453868713
-0.14663545777931986
0.5651888671843343
-0.7832879501071867
0.6458941110227185
0.45325733187350503
-0.4736944671827862
-0.6008416408469675
0.9800905166532271
-0.7641503111258381
0.18243710083649312
0.8389398784499039
-0.1788746355099441
0.047925754857799374
0.5083522937255243
0.8347286236170613
0.651285717838321
0.3887311580510391
-0.735279760341148
0.7708330803914932
0.49829383865533194
-0.718344101036605
-0.42947388332569647
0.21645451855786646
-0.827084908660497
-0.9203655661468138
-0.48506406446100847
-0.6183158013403603
-0.298966309706162
-0.17848654039277678
-0.5069166973595384
0.6657539189611554
-0.2682398325842452
0.5981215509102832
-0.8346629415633138
-0.6440897211755355
-0.7503222614562262
-0.48499106678714654
0.7116746334234547
0.3304319850274414
-0.8482950472804967
-0.004361122194707856
0.5094368070260094
0.9460501345062057
0.19868251453868713
-0.14663545777931986
0.5651888671843343
-0.7832879501071867
0.6458941110227185
0.45325733187350503
-0.6051770787562807
-0.6008416408469675
0.9800905166532271
-0.7641503111258381
0.18243710083649312
0.8389398784499039
-0.1788746355099441
0.047925754857799374
0.5083522937255243
0.8347286236170613
0.651285717838321
0.3887311580510391
-0.735279760341148
0.7708330803914932
0.49829383865533194
-0.718344101036605
-0.5200035591122738
-0.718795670329
-0.02327312782902717
-0.2155615214347516
-0.575824132539679
0.010311248579698118
-0.5349771725259782
0.6160846356290147
-0.5069166973595384
0.6657539189611554
-0.2682398325842452
0.5981215509102832
-0.8346629415633138
-0.2606187577621626
-0.26474899014189457
-0.35378690669069524
0.7116746334234547
0.3304319850274414
-0.993946304157131
-0.781969605428467
0.3889142545054025
0.9460501345062057
0.19868251453868713
-0.14663545777931986
0.5651888671843343
-0.7832879501071867
0.6458941110227185
0.45325733187350503
-0.4736944671827862
-0.6008416408469675
0.9800905166532271
-0.7641503111258381
0.18243710083649312
0.8389398784499039
-0.1788746355099441
0.047925754857799374
0.5083522937255243
0.8347286236170613
0.651285717838321
0.3887311580510391
-0.735279760341148
0.7708330803914932
0.49829383865533194
-0.718344101036605
-0.42947388332569647
0.21645451855786646
-0.827084908660497
-0.9203655661468138
-0.48506406446100847
-0.6183158013403603
-0.19095549627245256
0.8935053983290178
-0.7983072914874335
-0.7800298696546145
-0.9323489876045197
-0.420393033334163
-0.38333735024313886
-0.8238731706047737
-0.9685519893266813
0.06929018204065351
0.9525980193737923
-0.09560905362226191
-0.907050902262737
-0.5097191226091745
0.3889142545054025
0.9460501345062057
0.19868251453868713
-0.14663545777931986
0.5651888671843343
-0.7832879501071867
0.6458941110227185
0.45325733187350503
-0.4736944671827862
-0.6008416408469675
0.9800905166532271
-0.7641503111258381
0.18243710083649312
0.8389398784499039
-0.1788746355099441
0.047925754857799374
0.5083522937255243
0.8347286236170613
0.651285717838321
0.3887311580510391
-0.735279760341148
0.7708330803914932
0.49829383865533194
-0.718344101036605
-0.9430151075598803
0.9359771940679963
-0.0970760371733631
-0.2155615214347516
-0.575824132539679
0.010311248579698118
-0.5349771725259782
0.6160846356290147
-0.5069166973595384
0.6657539189611554
-0.2682398325842452
0.5981215509102832
-0.8346629415633138
-0.2606187577621626
-0.26474899014189457
-0.35378690669069524
0.7116746334234547
0.3304319850274414
-0.8482950472804967
-0.004361122194707856
0.3889142545054025
0.9460501345062057
0.19868251453868713
-0.14663545777931986
0.5651888671843343
-0.7832879501071867
0.6458941110227185
0.45325733187350503
-0.6051770787562807
-0.5640982179943498
0.7242643722882878
-0.09474619380898475
0.18243710083649312
0.8389398784499039
-0.1788746355099441
0.047925754857799374
0.5083522937255243
0.8347286236170613
0.651285717838321
0.3887311580510391
-0.735279760341148
0.7708330803914932
0.49829383865533194
-0.718344101036605
-0.8861500597349824
-0.45719649077898006
-0.1745268637228068
-0.2155615214347516
-0.575824132539679
-0.3817907038742946
-0.298966309706162
-0.17848654039277678
-0.969490436342252
0.7521661017721888
-0.7233374845345272
0.9420147311019863
-0.38333735024313886
-0.8238731706047737
-0.9685519893266813
0.06929018204065351
0.9525980193737923
-0.09560905362226191
-0.907050902262737
-0.5097191226091745
0.3889142545054025
0.9460501345062057
0.19868251453868713
-0.14663545777931986
0.5651888671843343
-0.7832879501071867
0.6458941110227185
0.45325733187350503
-0.4736944671827862
-0.6008416408469675
0.9800905166532271
-0.7641503111258381
0.8101813767256354
0.9329080765509548
0.39866332268013494
-0.09352629653257505
0.5083522937255243
0.8347286236170613
0.651285717838321
0.3887311580510391
-0.735279760341148
0.7708330803914932
0.49829383865533194
-0.718344101036605
-0.42947388332569647
0.21645451855786646
-0.827084908660497
-0.9203655661468138
-0.48506406446100847
-0.6183158013403603
-0.5349771725259782
0.6160846356290147
-0.5069166973595384
0.6657539189611554
-0.2682398325842452
0.5981215509102832
-0.38333735024313886
-0.8238731706047737
-0.9685519893266813
0.06929018204065351
-0.09742372517392506
0.7388548932922621
-0.8482950472804967
-0.004361122194707856
0.5094368070260094
0.9460501345062057
0.19868251453868713
-0.14663545777931986
0.5651888671843343
-0.7832879501071867
0.6458941110227185
0.47159536470676133
-0.0923691105025789
-0.6008416408469675
0.9800905166532271
-0.7641503111258381
0.18243710083649312
0.8389398784499039
-0.1788746355099441
0.047925754857799374
0.5083522937255243
0.8347286236170613
0.651285717838321
0.3887311580510391
-0.735279760341148
0.7708330803914932
0.49829383865533194
-0.718344101036605
-0.8861500597349824
-0.45719649077898006
-0.1745268637228068
-0.2155615214347516
-0.575824132539679
-0.3817907038742946
-0.298966309706162
-0.17848654039277678
-0.969490436342252
0.7521661017721888
-0.7233374845345272
0.9420147311019863
-0.8346629415633138
-0.2606187577621626
-0.26474899014189457
-0.35378690669069524
0.7116746334234547
0.3304319850274414
-0.993946304157131
-0.781969605428467
0.3889142545054025
0.9460501345062057
0.19868251453868713
-0.14663545777931986
0.5651888671843343
-0.7832879501071867
0.6458941110227185
0.45325733187350503
-0.18372009603285067
-0.6008416408469675
0.9800905166532271
-0.7641503111258381
0.18243710083649312
0.8389398784499039
-0.1788746355099441
0.2927556756720221
0.5083522937255243
0.8347286236170613
0.651285717838321
0.3887311580510391
-0.735279760341148
0.7708330803914932
0.49829383865533194
-0.718344101036605
-0.8861500597349824
-0.45719649077898006
-0.1745268637228068
0.5010000099659248
-0.8662932250507193
-0.40336755893627474
-0.40142951232842417
0.685602963261289
0.8434314202228516
-0.07029898385012512
0.7550872210495265
-0.08222162490932072
-0.7422320272746337
-0.08626034734040244
-0.3647431853352243
0.42753307120118045
0.7986265650764689
0.3304319850274414
-0.8482950472804967
-0.004361122194707856
0.3889142545054025
0.9460501345062057
0.19868251453868713
-0.14663545777931986
0.5651888671843343
-0.7832879501071867
0.07962368736154668
0.45325733187350503
-0.18372009603285067
-0.6008416408469675
0.9800905166532271
-0.7641503111258381
0.18243710083649312
0.8389398784499039
-0.1788746355099441
0.047925754857799374
0.5083522937255243
0.8347286236170613
0.651285717838321
0.3887311580510391
-0.735279760341148
0.7708330803914932
0.49829383865533194
-0.718344101036605
-0.42947388332569647
0.21645451855786646
-0.827084908660497
-0.9203655661468138
-0.48506406446100847
-0.6183158013403603
-0.5349771725259782
0.6160846356290147
-0.5069166973595384
0.6657539189611554
-0.2682398325842452
0.5981215509102832
-0.7422320272746337
-0.08626034734040244
-0.3647431853352243
0.42753307120118045
0.7116746334234547
0.3304319850274414
-0.907050902262737
-0.5097191226091745
0.3889142545054025
0.9460501345062057
0.19868251453868713
-0.14663545777931986
0.5651888671843343
-0.7832879501071867
0.6458941110227185
0.45325733187350503
-0.6950102723314855
-0.5640982179943498
0.7242643722882878
-0.09474619380898475
0.18243710083649312
0.8389398784499039
-0.1788746355099441
0.2927556756720221
0.5083522937255243
0.8347286236170613
0.651285717838321
0.3887311580510391
-0.735279760341148
0.7708330803914932
0.49829383865533194
-0.718344101036605
-0.9430151075598803
0.9359771940679963
-0.0970760371733631
-0.2155615214347516
-0.575824132539679
0.010311248579698118
-0.5349771725259782
0.6160846356290147
-0.5069166973595384
0.6657539189611554
-0.2682398325842452
0.5981215509102832
-0.38333735024313886
-0.8238731706047737
-0.9685519893266813
0.06929018204065351
-0.09742372517392506
0.7388548932922621
-0.8482950472804967
-0.004361122194707856
0.08782509449902876
0.5541021864896271
-0.1036606354856936
0.03804897379986094
0.5651888671843343
-0.7832879501071867
0.6458941110227185
0.45325733187350503
-0.4736944671827862
-0.09082695339319624
0.9800905166532271
-0.7641503111258381
0.18243710083649312
0.8389398784499039
-0.1788746355099441
0.047925754857799374
0.5083522937255243
0.8347286236170613
0.651285717838321
0.3887311580510391
-0.735279760341148
0.7708330803914932
0.49829383865533194
-0.718344101036605
-0.42947388332569647
0.21645451855786646
-0.827084908660497
-0.9203655661468138
-0.48506406446100847
-0.6183158013403603
-0.5349771725259782
0.6160846356290147
-0.5069166973595384
0.6657539189611554
-0.2682398325842452
0.5981215509102832
-0.8346629415633138
-0.2606187577621626
-0.26474899014189457
-0.35378690669069524
0.7116746334234547
0.3304319850274414
-0.993946304157131
-0.781969605428467
0.3889142545054025
0.9460501345062057
0.19868251453868713
-0.14663545777931986
0.5651888671843343
-0.7832879501071867
0.6458941110227185
0.45325733187350503
-0.6051770787562807
-0.5640982179943498
0.7242643722882878
-0.09474619380898475
0.8101813767256354
0.9329080765509548
0.09955543288274182
-0.09352629653257505
0.88923060958194
0.8264722448579369
0.651285717838321
0.3887311580510391
-0.735279760341148
0.7708330803914932
0.49829383865533194
-0.718344101036605
-0.42947388332569647
0.21645451855786646
-0.7901710870600036
-0.9203655661468138
-0.48506406446100847
-0.6183158013403603
-0.5349771725259782
0.6160846356290147
-0.5069166973595384
0.6657539189611554
-0.2682398325842452
0.5981215509102832
-0.8346629415633138
-0.6440897211755355
-0.7503222614562262
-0.48499106678714654
0.7116746334234547
0.3304319850274414
-0.8482950472804967
-0.004361122194707856
0.3889142545054025
0.9460501345062057
0.19868251453868713
-0.14663545777931986
0.5651888671843343
-0.7832879501071867
0.6458941110227185
0.45325733187350503
-0.6950102723314855
-0.5640982179943498
0.7242643722882878
-0.09474619380898475
0.8101813767256354
0.9329080765509548
0.39866332268013494
-0.09352629653257505
0.5083522937255243
0.8347286236170613
0.651285717838321
0.3887311580510391
-0.735279760341148
0.7708330803914932
0.49829383865533194
-0.718344101036605
-0.42947388332569647
0.21645451855786646
-0.827084908660497
-0.9203655661468138
-0.48506406446100847
-0.6183158013403603
-0.19095549627245256
0.8935053983290178
-0.7983072914874335
-0.7800298696546145
-0.9323489876045197
-0.420393033334163
-0.7422320272746337
-0.08626034734040244
-0.7503222614562262
-0.48499106678714654
0.7116746334234547
0.3304319850274414
-0.8482950472804967
-0.004361122194707856
0.3889142545054025
0.9460501345062057
0.19868251453868713
-0.14663545777931986
0.5651888671843343
-0.7832879501071867
0.6458941110227185
0.45325733187350503
-0.6051770787562807
-0.5640982179943498
0.7242643722882878
-0.09474619380898475
0.8101813767256354
0.9329080765509548
0.39866332268013494
0.047925754857799374
0.5083522937255243
0.8347286236170613
0.651285717838321
0.3887311580510391
-0.735279760341148
0.7708330803914932
0.49829383865533194
-0.718344101036605
-0.42947388332569647
0.21645451855786646
-0.827084908660497
-0.9203655661468138
-0.48506406446100847
-0.6183158013403603
-0.5349771725259782
0.6160846356290147
-0.5069166973595384
0.6657539189611554
-0.2682398325842452
0.5981215509102832
-0.8346629415633138
-0.6440897211755355
-0.7503222614562262
-0.48499106678714654
0.7116746334234547
0.3304319850274414
-0.8482950472804967
-0.004361122194707856
0.3889142545054025
0.9460501345062057
0.19868251453868713
-0.14663545777931986
0.5651888671843343
-0.7832879501071867
0.6458941110227185
0.45325733187350503
-0.6051770787562807
-0.5640982179943498
0.7242643722882878
-0.09474619380898475
0.18243710083649312
0.8389398784499039
-0.1788746355099441
0.047925754857799374
0.5083522937255243
0.8347286236170613
0.651285717838321
0.3887311580510391
-0.735279760341148
0.7708330803914932
0.49829383865533194
-0.718344101036605
-0.42947388332569647
0.21645451855786646
-0.827084908660497
-0.9203655661468138
-0.48506406446100847
-0.6183158013403603
-0.5349771725259782
0.6160846356290147
-0.5069166973595384
0.6657539189611554
-0.2682398325842452
0.5981215509102832
-0.38333735024313886
-0.8238731706047737
-0.9685519893266813
0.06929018204065351
0.7116746334234547
0.3304319850274414
-0.8482950472804967
-0.004361122194707856
0.3889142545054025
0.9460501345062057
0.19868251453868713
-0.14663545777931986
0.5651888671843343
-0.7832879501071867
0.6458941110227185
0.45325733187350503
-0.6051770787562807
-0.5640982179943498
0.7242643722882878
-0.09474619380898475
0.18243710083649312
0.8389398784499039
-0.1788746355099441
0.047925754857799374
0.5083522937255243
0.8347286236170613
0.651285717838321
0.3887311580510391
-0.735279760341148
0.7708330803914932
0.49829383865533194
-0.718344101036605
-0.42947388332569647
0.21645451855786646
-0.827084908660497
-0.9203655661468138
-0.48506406446100847
-0.6183158013403603
-0.5349771725259782
0.6160846356290147
-0.5069166973595384
0.6657539189611554
-0.2682398325842452
0.5981215509102832
-0.38333735024313886
-0.8238731706047737
-0.9685519893266813
0.06929018204065351
-0.09742372517392506
0.3304319850274414
-0.993946304157131
-0.781969605428467
0.3889142545054025
0.9460501345062057
0.19868251453868713
-0.14663545777931986
-0.803761855553417
-0.16687524824293243
-0.017664305904341093
0.09109288072806232
0.058280041582114084
0.27699521390223725
0.6363353432368533
0.7494041966250073
0.18243710083649312
0.8389398784499039
-0.1788746355099441
0.047925754857799374
0.5083522937255243
0.8347286236170613
0.7577293457668389
-0.7796721492135953
-0.6117680609036114
0.4340935115885626
-0.294880009973012
-0.6709072770512637
-0.8861500597349824
-0.45719649077898006
-0.1745268637228068
0.059629021562655815
-0.7454018565926052
-0.3817907038742946
-0.5349771725259782
0.6160846356290147
-0.5069166973595384
0.6657539189611554
-0.2682398325842452
0.5981215509102832
-0.7422320272746337
-0.08626034734040244
-0.3647431853352243
0.42753307120118045
0.7116746334234547
0.3304319850274414
-0.8482950472804967
-0.004361122194707856
0.3889142545054025
0.9460501345062057
0.19868251453868713
-0.14663545777931986
0.5651888671843343
-0.7832879501071867
0.07962368736154668
-0.07460364350899773
-0.6051770787562807
-0.6008416408469675
0.9800905166532271
-0.7641503111258381
-0.22638239183364606
0.808874893314982
-0.6807213638294757
-0.1945314753420091
0.3942660735093405
0.35633419250627985
0.7577293457668389
-0.7796721492135953
-0.6117680609036114
0.4340935115885626
-0.294880009973012
-0.6709072770512637
-0.8861500597349824
-0.45719649077898006
-0.1745268637228068
0.5010000099659248
-0.8662932250507193
-0.40336755893627474
-0.40142951232842417
0.685602963261289
0.8434314202228516
-0.07029898385012512
0.7550872210495265
-0.08222162490932072
-0.8431478841155939
-0.6440897211755355
-0.7503222614562262
-0.48499106678714654
-0.3802457115570171
0.7388548932922621
-0.8482950472804967
-0.004361122194707856
0.2092655702825864
0.9460501345062057
0.19868251453868713
-0.14663545777931986
0.5651888671843343
-0.7832879501071867
0.07962368736154668
-0.07460364350899773
-0.6051770787562807
-0.6008416408469675
0.9800905166532271
-0.7641503111258381
0.18243710083649312
0.8389398784499039
-0.1788746355099441
0.047925754857799374
0.5083522937255243
0.8347286236170613
0.651285717838321
0.3887311580510391
-0.735279760341148
0.7708330803914932
0.49829383865533194
-0.718344101036605
-0.9430151075598803
0.9359771940679963
-0.0970760371733631
-0.2155615214347516
-0.575824132539679
0.010311248579698118
-0.5349771725259782
0.6160846356290147
-0.5069166973595384
0.6657539189611554
-0.2682398325842452
0.5981215509102832
-0.8431478841155939
-0.6440897211755355
-0.7503222614562262
-0.48499106678714654
-0.09742372517392506
0.7388548932922621
-0.8482950472804967
-0.004361122194707856
0.3889142545054025
0.9460501345062057
0.19868251453868713
-0.14663545777931986
0.5651888671843343
-0.7832879501071867
0.6458941110227185
0.45325733187350503
-0.18372009603285067
-0.6008416408469675
0.9800905166532271
-0.7641503111258381
0.18243710083649312
0.8389398784499039
-0.1788746355099441
0.047925754857799374
0.5083522937255243
0.8347286236170613
0.651285717838321
0.3887311580510391
-0.735279760341148
0.7708330803914932
0.49829383865533194
-0.718344101036605
-0.9430151075598803
0.9359771940679963
-0.0970760371733631
-0.2155615214347516
-0.575824132539679
0.010311248579698118
-0.5349771725259782
0.6160846356290147
-0.5069166973595384
0.0969998337927136
0.7550872210495265
-0.08222162490932072
-0.8346629415633138
-0.2606187577621626
-0.26474899014189457
-0.35378690669069524
0.7116746334234547
0.3304319850274414
-0.993946304157131
-0.781969605428467
0.3889142545054025
0.9460501345062057
0.19868251453868713
-0.14663545777931986
0.5651888671843343
-0.7832879501071867
0.6458941110227185
0.45325733187350503
-0.6950102723314855
-0.5640982179943498
0.7242643722882878
-0.09474619380898475
0.18243710083649312
0.8389398784499039
-0.21865069054030786
0.047925754857799374
0.5083522937255243
0.8347286236170613
0.651285717838321
0.3887311580510391
-0.735279760341148
0.7708330803914932
0.49829383865533194
-0.718344101036605
-0.42947388332569647
0.21645451855786646
-0.827084908660497
-0.9203655661468138
-0.48506406446100847
-0.6183158013403603
-0.5349771725259782
0.6160846356290147
-0.5069166973595384
0.6657539189611554
-0.2682398325842452
0.5981215509102832
-0.7422320272746337
-0.08626034734040244
-0.3647431853352243
0.42753307120118045
0.7116746334234547
0.3304319850274414
-0.8482950472804967
-0.004361122194707856
0.5094368070260094
0.9460501345062057
0.19868251453868713
-0.14663545777931986
0.5651888671843343
-0.7832879501071867
0.6458941110227185
0.45325733187350503
-0.0923691105025789
-0.6008416408469675
0.9800905166532271
-0.7641503111258381
0.18243710083649312
0.8389398784499039
-0.1788746355099441
0.047925754857799374
0.5083522937255243
0.8347286236170613
0.651285717838321
0.3887311580510391
-0.735279760341148
0.7708330803914932
0.49829383865533194
-0.718344101036605
-0.8861500597349824
-0.45719649077898006
-0.1745268637228068
-0.2155615214347516
-0.575824132539679
-0.3817907038742946
-0.5349771725259782
0.6160846356290147
-0.969490436342252
0.7521661017721888
-0.7233374845345272
0.9420147311019863
-0.38333735024313886
-0.8238731706047737
-0.9685519893266813
0.06929018204065351
0.7116746334234547
0.3304319850274414
-0.8482950472804967
-0.004361122194707856
0.3889142545054025
0.9460501345062057
0.19868251453868713
-0.14663545777931986
0.5651888671843343
-0.7832879501071867
0.6458941110227185
0.45325733187350503
-0.6950102723314855
-0.5640982179943498
0.7242643722882878
-0.09474619380898475
0.650985627823681
0.8389398784499039
-0.1788746355099441
0.047925754857799374
0.5083522937255243
0.8347286236170613
0.651285717838321
0.3887311580510391
-0.735279760341148
0.7708330803914932
0.49829383865533194
-0.718344101036605
-0.8861500597349824
-0.45719649077898006
-0.1745268637228068
-0.2155615214347516
-0.575824132539679
-0.3817907038742946
-0.298966309706162
-0.17848654039277678
-0.969490436342252
0.7521661017721888
-0.7233374845345272
0.9420147311019863
-0.7422320272746337
-0.08626034734040244
-0.3647431853352243
0.42753307120118045
0.7116746334234547
0.3304319850274414
-0.8482950472804967
-0.004361122194707856
0.3889142545054025
0.9460501345062057
0.19868251453868713
-0.14663545777931986
0.5651888671843343
-0.7832879501071867
0.6458941110227185
0.45325733187350503
-0.6950102723314855
-0.5640982179943498
0.7242643722882878
-0.09474619380898475
0.18243710083649312
0.8389398784499039
-0.1788746355099441
0.047925754857799374
0.5083522937255243
0.8347286236170613
0.651285717838321
0.3887311580510391
-0.735279760341148
0.7708330803914932
0.49829383865533194
-0.718344101036605
-0.8861500597349824
-0.45719649077898006
-0.1745268637228068
-0.2155615214347516
-0.575824132539679
-0.3817907038742946
-0.298966309706162
-0.17848654039277678
-0.969490436342252
0.7521661017721888
-0.7233374845345272
0.9420147311019863
-0.6542264606234105
0.5018417279928061
-0.26996588992232784
0.11392809462672426
0.7116746334234547
0.3304319850274414
-0.8482950472804967
-0.004361122194707856
0.3889142545054025
0.9460501345062057
0.19868251453868713
-0.14663545777931986
0.5651888671843343
-0.7832879501071867
0.6458941110227185
0.45325733187350503
-0.6950102723314855
-0.5640982179943498
0.7242643722882878
-0.09474619380898475
0.18243710083649312
0.8389398784499039
-0.1788746355099441
0.047925754857799374
0.5083522937255243
0.8347286236170613
0.7577293457668389
-0.7796721492135953
-0.6117680609036114
0.4340935115885626
-0.294880009973012
-0.6709072770512637
-0.42947388332569647
0.21645451855786646
-0.827084908660497
-0.9203655661468138
-0.48506406446100847
-0.6183158013403603
-0.19095549627245256
0.8935053983290178
-0.7983072914874335
-0.7800298696546145
-0.2682398325842452
0.5981215509102832
-0.38333735024313886
-0.8238731706047737
-0.9685519893266813
0.06929018204065351
0.7116746334234547
0.3304319850274414
-0.8482950472804967
-0.004361122194707856
0.3889142545054025
0.9460501345062057
0.19868251453868713
-0.14663545777931986
0.5651888671843343
-0.7832879501071867
0.6458941110227185
0.45325733187350503
-0.4736944671827862
-0.6008416408469675
0.9800905166532271
-0.7641503111258381
-0.22638239183364606
0.808874893314982
-0.1788746355099441
0.047925754857799374
0.5083522937255243
0.8347286236170613
0.651285717838321
0.3887311580510391
-0.735279760341148
0.7708330803914932
0.49829383865533194
-0.718344101036605
-0.42947388332569647
0.21645451855786646
-0.827084908660497
-0.9203655661468138
-0.7454018565926052
-0.3817907038742946
-0.298966309706162
-0.17848654039277678
-0.969490436342252
0.7521661017721888
-0.7233374845345272
0.9420147311019863
-0.7422320272746337
-0.08626034734040244
-0.3647431853352243
0.42753307120118045
0.7116746334234547
0.3304319850274414
-0.8482950472804967
-0.004361122194707856
0.2092655702825864
0.9460501345062057
0.19868251453868713
-0.14663545777931986
0.5651888671843343
-0.7832879501071867
0.6458941110227185
0.45325733187350503
-0.6950102723314855
-0.5640982179943498
0.7242643722882878
-0.09474619380898475
0.18243710083649312
0.8389398784499039
-0.1788746355099441
0.047925754857799374
0.5083522937255243
0.8347286236170613
0.651285717838321
0.3887311580510391
-0.735279760341148
0.7708330803914932
0.49829383865533194
-0.718344101036605
-0.42947388332569647
0.21645451855786646
-0.827084908660497
-0.9203655661468138
-0.48506406446100847
-0.6183158013403603
-0.5349771725259782
0.6160846356290147
-0.5069166973595384
0.6657539189611554
-0.2682398325842452
0.5981215509102832
-0.8346629415633138
-0.6440897211755355
-0.7503222614562262
-0.48499106678714654
0.7116746334234547
0.3304319850274414
-0.8482950472804967
-0.004361122194707856
0.5094368070260094
0.9460501345062057
0.19868251453868713
-0.14663545777931986
0.5651888671843343
-0.7832879501071867
0.6458941110227185
0.47159536470676133
-0.4736944671827862
-0.6008416408469675
0.9800905166532271
-0.7641503111258381
0.8101813767256354
0.9329080765509548
0.39866332268013494
-0.09352629653257505
0.5083522937255243
0.8347286236170613
0.651285717838321
0.3887311580510391
-0.735279760341148
0.7708330803914932
0.49829383865533194
-0.718344101036605
-0.42947388332569647
0.21645451855786646
-0.827084908660497
-0.9203655661468138
-0.48506406446100847
-0.6183158013403603
-0.5349771725259782
0.6160846356290147
-0.5069166973595384
0.6657539189611554
-0.2682398325842452
0.5981215509102832
-0.38333735024313886
-0.8238731706047737
-0.9685519893266813
0.06929018204065351
0.7116746334234547
0.3304319850274414
-0.8482950472804967
-0.004361122194707856
0.3889142545054025
0.9460501345062057
0.19868251453868713
-0.14663545777931986
0.5651888671843343
-0.7832879501071867
0.6458941110227185
0.45325733187350503
-0.6051770787562807
-0.5640982179943498
0.7242643722882878
-0.09474619380898475
0.18243710083649312
0.8389398784499039
-0.1788746355099441
0.047925754857799374
0.5083522937255243
0.8347286236170613
0.651285717838321
0.3887311580510391
-0.735279760341148
0.4340935115885626
-0.294880009973012
-0.6709072770512637
-0.42947388332569647
0.21645451855786646
-0.9222562793016729
-0.9203655661468138
-0.48506406446100847
-0.6183158013403603
-0.19095549627245256
0.8935053983290178
-0.7983072914874335
-0.7800298696546145
-0.2682398325842452
0.5981215509102832
-0.38333735024313886
-0.8238731706047737
-0.9685519893266813
0.06929018204065351
0.7116746334234547
0.3304319850274414
-0.8482950472804967
-0.004361122194707856
0.3889142545054025
0.9460501345062057
0.19868251453868713
-0.14663545777931986
0.5651888671843343
-0.7832879501071867
0.6458941110227185
0.45325733187350503
-0.4736944671827862
-0.6008416408469675
0.9800905166532271
-0.7641503111258381
0.18243710083649312
0.8389398784499039
-0.1788746355099441
0.047925754857799374
0.5083522937255243
0.8347286236170613
0.651285717838321
0.3887311580510391
-0.735279760341148
0.7708330803914932
0.49829383865533194
-0.718344101036605
-0.42947388332569647
0.21645451855786646
0.21887056339725752
0.059629021562655815
-0.7454018565926052
-0.3817907038742946
-0.5349771725259782
0.6160846356290147
-0.5069166973595384
0.6657539189611554
-0.2682398325842452
0.5981215509102832
-0.8431478841155939
-0.6440897211755355
-0.7503222614562262
-0.48499106678714654
0.7986265650764689
0.3304319850274414
-0.8482950472804967
-0.004361122194707856
0.3889142545054025
0.9714633940182468
0.19868251453868713
-0.14663545777931986
0.5651888671843343
-0.7832879501071867
0.6458941110227185
0.45325733187350503
-0.18372009603285067
-0.6008416408469675
0.9800905166532271
-0.7641503111258381
0.18243710083649312
0.8389398784499039
-0.1788746355099441
0.047925754857799374
0.5083522937255243
0.8347286236170613
0.651285717838321
0.3887311580510391
-0.735279760341148
0.7708330803914932
0.49829383865533194
-0.718344101036605
-0.42947388332569647
0.21645451855786646
-0.827084908660497
-0.9203655661468138
-0.48506406446100847
-0.6183158013403603
-0.5349771725259782
0.6160846356290147
-0.5069166973595384
0.6657539189611554
-0.2682398325842452
0.5981215509102832
-0.6542264606234105
0.5018417279928061
-0.26996588992232784
0.11392809462672426
0.7116746334234547
0.3304319850274414
-0.8482950472804967
-0.004361122194707856
0.3889142545054025
0.9460501345062057
0.19868251453868713
-0.14663545777931986
0.5651888671843343
-0.7832879501071867
0.6458941110227185
0.45325733187350503
-0.6051770787562807
-0.6008416408469675
0.9800905166532271
-0.7641503111258381
0.18243710083649312
0.8389398784499039
-0.1788746355099441
0.047925754857799374
0.5083522937255243
0.8347286236170613
0.651285717838321
0.3887311580510391
-0.735279760341148
0.7708330803914932
0.49829383865533194
-0.718344101036605
-0.42947388332569647
0.21645451855786646
-0.827084908660497
-0.9203655661468138
-0.48506406446100847
-0.6183158013403603
-0.5349771725259782
0.6160846356290147
-0.5069166973595384
0.6657539189611554
-0.2682398325842452
0.5981215509102832
-0.8346629415633138
-0.6440897211755355
-0.7503222614562262
-0.48499106678714654
0.7116746334234547
0.3304319850274414
-0.8482950472804967
-0.004361122194707856
0.3889142545054025
0.9460501345062057
0.19868251453868713
-0.14663545777931986
0.5651888671843343
-0.7832879501071867
0.6458941110227185
0.45325733187350503
-0.4736944671827862
-0.6008416408469675
0.9800905166532271
-0.7641503111258381
0.18243710083649312
0.8389398784499039
-0.1788746355099441
0.047925754857799374
0.5083522937255243
0.8347286236170613
0.651285717838321
0.3887311580510391
-0.735279760341148
0.7708330803914932
0.49829383865533194
-0.718344101036605
-0.42947388332569647
0.21645451855786646
-0.827084908660497
-0.9203655661468138
-0.48506406446100847
-0.6183158013403603
-0.5349771725259782
0.6160846356290147
-0.5069166973595384
0.6657539189611554
-0.2682398325842452
0.5981215509102832
-0.38333735024313886
-0.8238731706047737
-0.9685519893266813
0.06929018204065351
0.9525980193737923
-0.09560905362226191
-0.907050902262737
-0.5097191226091745
0.5094368070260094
0.9460501345062057
0.19868251453868713
-0.14663545777931986
0.5651888671843343
-0.7832879501071867
0.6458941110227185
0.45325733187350503
-0.4736944671827862
-0.6008416408469675
0.9800905166532271
-0.7641503111258381
0.18243710083649312
0.8389398784499039
-0.1788746355099441
0.047925754857799374
0.5083522937255243
0.8347286236170613
0.7577293457668389
-0.7796721492135953
-0.6117680609036114
0.4340935115885626
-0.294880009973012
-0.6709072770512637
-0.8861500597349824
-0.45719649077898006
-0.1745268637228068
0.059629021562655815
-0.7454018565926052
-0.3817907038742946
-0.5349771725259782
0.6160846356290147
-0.5069166973595384
0.6657539189611554
-0.2682398325842452
0.5981215509102832
-0.38333735024313886
-0.8238731706047737
-0.9685519893266813
0.06929018204065351
0.7116746334234547
0.3304319850274414
-0.993946304157131
-0.781969605428467
0.3889142545054025
0.9460501345062057
0.19868251453868713
-0.14663545777931986
0.5651888671843343
-0.7832879501071867
0.6458941110227185
0.45325733187350503
-0.6051770787562807
-0.6008416408469675
0.9800905166532271
-0.7641503111258381
0.18243710083649312
0.808874893314982
-0.1788746355099441
0.047925754857799374
0.5083522937255243
0.8347286236170613
0.651285717838321
0.3887311580510391
-0.735279760341148
0.7708330803914932
0.49829383865533194
-0.718344101036605
-0.8861500597349824
-0.45719649077898006
-0.1745268637228068
-0.9203655661468138
-0.48506406446100847
-0.6183158013403603
-0.5349771725259782
0.6160846356290147
-0.5069166973595384
0.6657539189611554
-0.2682398325842452
0.5981215509102832
-0.8431478841155939
-0.6440897211755355
-0.7503222614562262
-0.48499106678714654
0.7116746334234547
0.3304319850274414
-0.8482950472804967
-0.004361122194707856
0.3889142545054025
0.9460501345062057
0.19868251453868713
-0.14663545777931986
0.5651888671843343
-0.7832879501071867
0.6458941110227185
0.45325733187350503
-0.4736944671827862
-0.6008416408469675
0.9800905166532271
-0.7641503111258381
0.18243710083649312
0.8389398784499039
-0.1788746355099441
0.047925754857799374
0.5083522937255243
0.8347286236170613
0.651285717838321
0.3887311580510391
-0.735279760341148
0.7708330803914932
0.49829383865533194
-0.718344101036605
-0.42947388332569647
0.21645451855786646
-0.827084908660497
-0.9203655661468138
-0.48506406446100847
-0.6183158013403603
-0.5349771725259782
0.6160846356290147
-0.5069166973595384
0.0969998337927136
0.7550872210495265
-0.08222162490932072
-0.8431478841155939
-0.6440897211755355
-0.7503222614562262
-0.48499106678714654
0.7116746334234547
0.3304319850274414
-0.8482950472804967
-0.004361122194707856
0.3889142545054025
0.9460501345062057
0.19868251453868713
-0.14663545777931986
0.5651888671843343
-0.7832879501071867
0.6458941110227185
0.45325733187350503
-0.4736944671827862
-0.6008416408469675
0.9800905166532271
-0.7641503111258381
0.18243710083649312
0.8389398784499039
-0.1788746355099441
0.047925754857799374
0.5083522937255243
0.8347286236170613
0.651285717838321
0.3887311580510391
-0.735279760341148
0.7708330803914932
0.49829383865533194
-0.718344101036605
-0.42947388332569647
0.21645451855786646
-0.827084908660497
-0.9203655661468138
-0.48506406446100847
-0.6183158013403603
-0.5349771725259782
0.6160846356290147
-0.5069166973595384
0.6657539189611554
-0.2682398325842452
0.5981215509102832
-0.8431478841155939
-0.6440897211755355
-0.7503222614562262
-0.48499106678714654
0.7116746334234547
0.3304319850274414
-0.8482950472804967
-0.004361122194707856
0.3889142545054025
0.9460501345062057
0.19868251453868713
-0.14663545777931986
0.5651888671843343
-0.7832879501071867
0.6458941110227185
0.47159536470676133
-0.4736944671827862
-0.6008416408469675
0.9800905166532271
-0.7641503111258381
0.18243710083649312
0.8389398784499039
-0.1788746355099441
0.047925754857799374
0.5083522937255243
0.8347286236170613
0.651285717838321
0.3887311580510391
-0.735279760341148
0.7708330803914932
0.49829383865533194
-0.718344101036605
-0.42947388332569647
0.21645451855786646
-0.827084908660497
-0.9203655661468138
-0.48506406446100847
-0.6183158013403603
-0.5349771725259782
0.6160846356290147
-0.5069166973595384
0.6657539189611554
-0.2682398325842452
0.5981215509102832
-0.8431478841155939
-0.6440897211755355
-0.7503222614562262
-0.48499106678714654
0.7986265650764689
0.3304319850274414
-0.8482950472804967
-0.004361122194707856
0.3889142545054025
0.9460501345062057
0.19868251453868713
-0.14663545777931986
0.5651888671843343
-0.7832879501071867
0.6458941110227185
0.45325733187350503
-0.6051770787562807
-0.6008416408469675
0.9800905166532271
-0.7641503111258381
0.18243710083649312
0.8389398784499039
-0.1788746355099441
0.047925754857799374
0.5083522937255243
0.8347286236170613
0.651285717838321
0.3887311580510391
-0.735279760341148
0.7708330803914932
0.49829383865533194
-0.718344101036605
-0.8861500597349824
-0.45719649077898006
-0.1745268637228068
-0.2155615214347516
-0.575824132539679
-0.3817907038742946
-0.298966309706162
-0.17848654039277678
-0.969490436342252
0.7521661017721888
-0.7233374845345272
0.9420147311019863
-0.6542264606234105
0.5018417279928061
-0.26996588992232784
0.11392809462672426
0.7116746334234547
0.3304319850274414
-0.8482950472804967
-0.004361122194707856
0.3889142545054025
0.9460501345062057
0.19868251453868713
-0.14663545777931986
0.5651888671843343
-0.7832879501071867
0.6458941110227185
0.45325733187350503
-0.6950102723314855
-0.5640982179943498
0.7242643722882878
-0.09474619380898475
0.18243710083649312
0.8389398784499039
-0.1788746355099441
0.047925754857799374
0.5083522937255243
0.8347286236170613
0.651285717838321
0.3887311580510391
-0.735279760341148
0.7708330803914932
0.49829383865533194
-0.718344101036605
-0.42947388332569647
0.21645451855786646
-0.827084908660497
-0.9203655661468138
-0.48506406446100847
-0.6183158013403603
-0.5349771725259782
0.6160846356290147
-0.5069166973595384
0.6657539189611554
-0.2682398325842452
0.5981215509102832
-0.7422320272746337
-0.08626034734040244
-0.3647431853352243
0.42753307120118045
0.7116746334234547
0.3304319850274414
-0.8482950472804967
-0.004361122194707856
0.3889142545054025
0.9460501345062057
0.19868251453868713
-0.14663545777931986
0.5651888671843343
-0.7832879501071867
0.6458941110227185
0.45325733187350503
-0.6051770787562807
-0.6008416408469675
0.9800905166532271
-0.7641503111258381
0.8101813767256354
0.9329080765509548
0.09955543288274182
-0.09352629653257505
0.88923060958194
0.8264722448579369
0.651285717838321
0.3887311580510391
-0.735279760341148
0.7708330803914932
0.49829383865533194
-0.718344101036605
-0.42947388332569647
0.21645451855786646
-0.827084908660497
-0.9203655661468138
-0.48506406446100847
-0.6183158013403603
-0.5349771725259782
0.6160846356290147
-0.5069166973595384
0.6657539189611554
-0.2682398325842452
0.5981215509102832
-0.8346629415633138
-0.6440897211755355
-0.7503222614562262
-0.48499106678714654
0.7116746334234547
0.3304319850274414
-0.8482950472804967
-0.004361122194707856
0.5094368070260094
0.9460501345062057
0.19868251453868713
-0.14663545777931986
0.5651888671843343
-0.7832879501071867
0.6458941110227185
0.2725001669575703
-0.2413548827329398
-0.6377002686876642
0.2539242500830762
0.43407225677711614
0.8101813767256354
0.9329080765509548
0.09955543288274182
-0.09352629653257505
0.88923060958194
0.8264722448579369
0.651285717838321
0.3887311580510391
-0.735279760341148
0.7708330803914932
0.49829383865533194
-0.718344101036605
-0.42947388332569647
0.21645451855786646
-0.827084908660497
-0.9203655661468138
-0.48506406446100847
-0.6183158013403603
-0.5349771725259782
0.6160846356290147
-0.5069166973595384
0.6657539189611554
-0.2682398325842452
0.5981215509102832
-0.38333735024313886
-0.8238731706047737
-0.9685519893266813
0.06929018204065351
0.7116746334234547
0.3304319850274414
-0.8482950472804967
-0.004361122194707856
0.5094368070260094
0.9460501345062057
0.19868251453868713
-0.14663545777931986
0.5651888671843343
-0.7832879501071867
0.6458941110227185
0.45325733187350503
-0.18372009603285067
-0.6008416408469675
0.9800905166532271
-0.7641503111258381
0.18243710083649312
0.8389398784499039
-0.1788746355099441
0.047925754857799374
0.5083522937255243
0.8347286236170613
0.651285717838321
0.3887311580510391
-0.735279760341148
0.7708330803914932
0.49829383865533194
-0.718344101036605
-0.42947388332569647
0.21645451855786646
0.21887056339725752
0.059629021562655815
-0.7454018565926052
-0.3817907038742946
-0.19095549627245256
0.8935053983290178
-0.7983072914874335
-0.7800298696546145
-0.9323489876045197
-0.420393033334163
-0.8431478841155939
-0.6440897211755355
-0.7503222614562262
-0.48499106678714654
0.9525980193737923
-0.09560905362226191
-0.907050902262737
-0.5097191226091745
0.3889142545054025
0.9460501345062057
0.19868251453868713
-0.14663545777931986
0.5651888671843343
-0.7996306948473165
0.15227582874296375
0.45325733187350503
-0.6051770787562807
-0.5640982179943498
0.7242643722882878
-0.09474619380898475
0.18243710083649312
0.8389398784499039
-0.1788746355099441
0.047925754857799374
0.5083522937255243
0.8347286236170613
0.651285717838321
0.3887311580510391
-0.735279760341148
0.7708330803914932
0.49829383865533194
-0.718344101036605
-0.9430151075598803
0.9359771940679963
-0.0970760371733631
-0.2155615214347516
-0.575824132539679
0.010311248579698118
-0.5349771725259782
0.6160846356290147
-0.5069166973595384
0.6657539189611554
-0.2682398325842452
0.5981215509102832
-0.8346629415633138
-0.2606187577621626
-0.26474899014189457
-0.35378690669069524
0.7116746334234547
0.3304319850274414
-0.993946304157131
-0.781969605428467
0.3889142545054025
0.9460501345062057
0.19868251453868713
-0.14663545777931986
0.5651888671843343
-0.7832879501071867
0.6458941110227185
0.45325733187350503
-0.6051770787562807
-0.6008416408469675
0.9800905166532271
-0.7641503111258381
0.8101813767256354
0.9329080765509548
0.39866332268013494
-0.09352629653257505
0.5083522937255243
0.8347286236170613
0.651285717838321
0.3887311580510391
-0.735279760341148
0.7708330803914932
0.49829383865533194
-0.718344101036605
-0.42947388332569647
0.21645451855786646
-0.827084908660497
-0.9203655661468138
-0.48506406446100847
-0.6183158013403603
-0.5349771725259782
0.6160846356290147
-0.5069166973595384
0.6657539189611554
-0.2682398325842452
0.5981215509102832
-0.38333735024313886
-0.8238731706047737
-0.9685519893266813
0.06929018204065351
0.7116746334234547
0.3304319850274414
-0.8482950472804967
-0.004361122194707856
0.5094368070260094
0.9460501345062057
0.19868251453868713
-0.14663545777931986
0.5651888671843343
-0.7832879501071867
0.6458941110227185
0.45325733187350503
-0.6051770787562807
-0.5640982179943498
0.7242643722882878
-0.09474619380898475
0.18243710083649312
0.8389398784499039
-0.1788746355099441
0.047925754857799374
0.5083522937255243
0.8347286236170613
0.651285717838321
0.3887311580510391
-0.735279760341148
0.7708330803914932
0.49829383865533194
-0.718344101036605
-0.9430151075598803
0.9359771940679963
-0.827084908660497
-0.9203655661468138
-0.48506406446100847
-0.6183158013403603
-0.19095549627245256
0.8935053983290178
-0.969490436342252
0.7521661017721888
-0.7233374845345272
0.9420147311019863
-0.7422320272746337
-0.08626034734040244
-0.3647431853352243
0.42753307120118045
0.7116746334234547
0.3304319850274414
-0.8482950472804967
-0.004361122194707856
0.3889142545054025
0.9460501345062057
0.19868251453868713
-0.14663545777931986
0.5651888671843343
-0.7832879501071867
0.6458941110227185
0.45325733187350503
-0.6051770787562807
-0.6008416408469675
0.9800905166532271
-0.7641503111258381
0.8101813767256354
0.9329080765509548
0.39866332268013494
-0.09352629653257505
0.5083522937255243
0.8347286236170613
0.651285717838321
0.3887311580510391
-0.735279760341148
0.7708330803914932
0.49829383865533194
-0.718344101036605
-0.42947388332569647
0.21645451855786646
-0.827084908660497
-0.9203655661468138
-0.48506406446100847
-0.6183158013403603
-0.5349771725259782
0.6160846356290147
-0.5069166973595384
0.6657539189611554
-0.2682398325842452
0.5981215509102832
-0.38333735024313886
-0.8238731706047737
-0.9685519893266813
0.06929018204065351
-0.09742372517392506
0.7388548932922621
-0.8482950472804967
-0.004361122194707856
0.3889142545054025
0.9460501345062057
0.19868251453868713
-0.14663545777931986
0.5651888671843343
-0.7832879501071867
0.6458941110227185
0.45325733187350503
-0.6051770787562807
-0.6008416408469675
0.9800905166532271
-0.7641503111258381
0.18243710083649312
0.8389398784499039
-0.1788746355099441
0.2927556756720221
0.5083522937255243
0.8347286236170613
0.651285717838321
0.3887311580510391
-0.735279760341148
0.7708330803914932
0.49829383865533194
-0.718344101036605
-0.42947388332569647
0.21645451855786646
-0.827084908660497
-0.9203655661468138
-0.48506406446100847
-0.6183158013403603
-0.5349771725259782
0.6160846356290147
-0.5069166973595384
0.6657539189611554
-0.2682398325842452
0.5981215509102832
-0.8346629415633138
-0.6440897211755355
-0.7503222614562262
-0.48499106678714654
0.7116746334234547
0.3304319850274414
-0.8482950472804967
-0.004361122194707856
0.5094368070260094
0.9460501345062057
0.19868251453868713
-0.14663545777931986
0.5651888671843343
-0.7832879501071867
0.6458941110227185
0.45325733187350503
-0.6950102723314855
-0.5640982179943498
0.7242643722882878
-0.09474619380898475
0.8101813767256354
0.9329080765509548
0.39866332268013494
-0.09352629653257505
0.5083522937255243
0.8347286236170613
0.651285717838321
0.3887311580510391
-0.735279760341148
0.7708330803914932
0.49829383865533194
-0.718344101036605
-0.42947388332569647
0.21645451855786646
-0.827084908660497
-0.9203655661468138
-0.48506406446100847
-0.6183158013403603
-0.19095549627245256
0.8935053983290178
-0.7983072914874335
-0.7800298696546145
-0.9323489876045197
-0.420393033334163
-0.8431478841155939
-0.6440897211755355
-0.7503222614562262
-0.48499106678714654
0.7116746334234547
0.3304319850274414
-0.8482950472804967
-0.004361122194707856
0.3889142545054025
0.9460501345062057
0.19868251453868713
-0.14663545777931986
0.5651888671843343
-0.7832879501071867
0.6458941110227185
0.45325733187350503
-0.6051770787562807
-0.5640982179943498
0.9800905166532271
-0.7641503111258381
0.18243710083649312
0.808874893314982
-0.6807213638294757
-0.1945314753420091
0.3942660735093405
0.35633419250627985
0.651285717838321
0.3887311580510391
-0.735279760341148
0.7708330803914932
0.49829383865533194
-0.718344101036605
-0.5200035591122738
-0.718795670329
-0.02327312782902717
-0.2155615214347516
-0.575824132539679
0.010311248579698118
-0.19354993175720758
0.685602963261289
0.9506273739101405
0.1054552150508089
0.17449259388529703
-0.12856118617681844
-0.38333735024313886
-0.8238731706047737
-0.9685519893266813
0.06929018204065351
0.9525980193737923
-0.09560905362226191
-0.907050902262737
-0.5097191226091745
0.3889142545054025
0.9460501345062057
0.19868251453868713
-0.14663545777931986
0.5651888671843343
-0.7832879501071867
0.6458941110227185
0.45325733187350503
-0.6051770787562807
-0.6008416408469675
0.9800905166532271
-0.7641503111258381
0.6714261867350866
-0.9966074091137186
-0.007599206988201379
0.3716779911709184
0.031937261217154234
-0.9542255628128988
0.651285717838321
0.3887311580510391
-0.735279760341148
0.7708330803914932
0.49829383865533194
-0.718344101036605
-0.42947388332569647
0.21645451855786646
0.21887056339725752
0.059629021562655815
-0.7454018565926052
-0.3817907038742946
-0.19354993175720758
0.685602963261289
0.9506273739101405
0.1054552150508089
0.17449259388529703
-0.12856118617681844
-0.38333735024313886
-0.8238731706047737
-0.9685519893266813
0.06929018204065351
-0.09742372517392506
0.7388548932922621
-0.8482950472804967
-0.004361122194707856
0.3889142545054025
0.9460501345062057
0.19868251453868713
-0.14663545777931986
-0.803761855553417
-0.16687524824293243
-0.017664305904341093
0.09109288072806232
-0.2413548827329398
-0.6377002686876642
0.9800905166532271
-0.7641503111258381
0.18243710083649312
0.8389398784499039
-0.1788746355099441
0.047925754857799374
0.5083522937255243
0.8347286236170613
0.651285717838321
0.3887311580510391
-0.735279760341148
0.7708330803914932
0.49829383865533194
-0.718344101036605
-0.9430151075598803
0.9359771940679963
-0.0970760371733631
-0.2155615214347516
-0.575824132539679
-0.3817907038742946
-0.298966309706162
-0.17848654039277678
-0.969490436342252
0.7521661017721888
-0.7233374845345272
0.9420147311019863
-0.8346629415633138
-0.2606187577621626
-0.26474899014189457
-0.35378690669069524
0.7116746334234547
0.3304319850274414
-0.993946304157131
-0.781969605428467
0.3889142545054025
0.9460501345062057
0.19868251453868713
-0.14663545777931986
0.5651888671843343
-0.7832879501071867
0.6458941110227185
0.45325733187350503
-0.4736944671827862
-0.6008416408469675
0.9800905166532271
-0.7641503111258381
0.18243710083649312
0.8389398784499039
-0.1788746355099441
0.047925754857799374
0.5083522937255243
0.8347286236170613
0.651285717838321
0.3887311580510391
-0.735279760341148
0.7708330803914932
0.49829383865533194
-0.718344101036605
-0.8861500597349824
-0.45719649077898006
-0.1745268637228068
0.5010000099659248
-0.8662932250507193
-0.40336755893627474
-0.40142951232842417
0.685602963261289
0.8434314202228516
-0.07029898385012512
0.7550872210495265
-0.08222162490932072
-0.7422320272746337
-0.08626034734040244
-0.3647431853352243
0.42753307120118045
0.7116746334234547
0.3304319850274414
-0.8482950472804967
-0.004361122194707856
0.3889142545054025
0.9460501345062057
0.19868251453868713
-0.14663545777931986
0.5651888671843343
-0.7832879501071867
0.07962368736154668
0.45325733187350503
-0.6051770787562807
-0.6008416408469675
0.7242643722882878
-0.09474619380898475
0.18243710083649312
0.8389398784499039
-0.1788746355099441
0.047925754857799374
0.5083522937255243
0.8347286236170613
0.651285717838321
0.3887311580510391
-0.735279760341148
0.7708330803914932
0.49829383865533194
-0.718344101036605
-0.42947388332569647
0.21645451855786646
-0.827084908660497
-0.9203655661468138
-0.48506406446100847
-0.6183158013403603
-0.19095549627245256
0.8935053983290178
-0.7983072914874335
-0.7800298696546145
-0.9323489876045197
-0.420393033334163
-0.8431478841155939
-0.6440897211755355
-0.7503222614562262
-0.48499106678714654
0.9525980193737923
-0.09560905362226191
-0.907050902262737
-0.5097191226091745
0.08782509449902876
0.5541021864896271
-0.1036606354856936
0.03804897379986094
0.5651888671843343
-0.7832879501071867
0.6458941110227185
0.45325733187350503
-0.4736944671827862
-0.6008416408469675
0.9800905166532271
-0.7641503111258381
0.18243710083649312
0.8389398784499039
-0.1788746355099441
0.047925754857799374
0.5083522937255243
0.8347286236170613
0.651285717838321
0.3887311580510391
-0.735279760341148
0.7708330803914932
0.49829383865533194
-0.718344101036605
-0.42947388332569647
0.21645451855786646
-0.827084908660497
-0.9203655661468138
-0.48506406446100847
-0.6183158013403603
-0.5349771725259782
0.6160846356290147
-0.5069166973595384
0.6657539189611554
-0.2682398325842452
0.5981215509102832
-0.8346629415633138
-0.6440897211755355
-0.9685519893266813
0.06929018204065351
0.7116746334234547
0.3304319850274414
-0.907050902262737
-0.5097191226091745
0.3889142545054025
0.9460501345062057
0.19868251453868713
-0.14663545777931986
0.5651888671843343
-0.7832879501071867
0.6458941110227185
0.45325733187350503
-0.6950102723314855
-0.5640982179943498
0.7242643722882878
-0.09474619380898475
0.8101813767256354
0.9329080765509548
0.09955543288274182
-0.09352629653257505
0.88923060958194
0.8264722448579369
0.651285717838321
0.3887311580510391
-0.735279760341148
0.7708330803914932
0.49829383865533194
-0.718344101036605
-0.42947388332569647
0.21645451855786646
-0.7901710870600036
-0.9203655661468138
-0.48506406446100847
-0.6183158013403603
-0.5349771725259782
0.6160846356290147
-0.5069166973595384
0.6657539189611554
-0.2682398325842452
0.5981215509102832
-0.8346629415633138
-0.6440897211755355
-0.7503222614562262
-0.48499106678714654
0.7116746334234547
0.3304319850274414
-0.8482950472804967
-0.004361122194707856
0.5094368070260094
0.9460501345062057
0.19868251453868713
-0.14663545777931986
0.5651888671843343
-0.7832879501071867
0.6458941110227185
0.47159536470676133
-0.6950102723314855
-0.5640982179943498
0.7242643722882878
-0.09474619380898475
0.650985627823681
0.48141701098817336
-0.46733561466561835
0.047925754857799374
0.5083522937255243
0.8347286236170613
0.651285717838321
0.3887311580510391
-0.735279760341148
0.7708330803914932
0.49829383865533194
-0.718344101036605
-0.9430151075598803
0.9359771940679963
-0.0970760371733631
-0.2155615214347516
-0.575824132539679
-0.3817907038742946
-0.5349771725259782
0.6160846356290147
-0.5069166973595384
0.6657539189611554
-0.2682398325842452
0.5981215509102832
-0.8346629415633138
-0.2606187577621626
-0.26474899014189457
-0.35378690669069524
0.7116746334234547
0.3304319850274414
-0.993946304157131
-0.781969605428467
0.3889142545054025
0.9460501345062057
0.19868251453868713
-0.14663545777931986
0.5651888671843343
-0.7832879501071867
0.6458941110227185
0.45325733187350503
-0.4736944671827862
-0.6008416408469675
0.9800905166532271
-0.7641503111258381
0.18243710083649312
0.8389398784499039
-0.1788746355099441
0.047925754857799374
0.5083522937255243
0.8347286236170613
0.651285717838321
0.3887311580510391
-0.735279760341148
0.7708330803914932
0.49829383865533194
-0.718344101036605
-0.5200035591122738
-0.718795670329
0.21887056339725752
0.059629021562655815
-0.7454018565926052
-0.3817907038742946
-0.19095549627245256
0.8935053983290178
-0.7983072914874335
-0.7800298696546145
-0.9323489876045197
0.6894073691255986
-0.8346629415633138
-0.2606187577621626
-0.26474899014189457
-0.35378690669069524
0.7116746334234547
0.3304319850274414
-0.993946304157131
-0.781969605428467
0.3889142545054025
0.9460501345062057
0.19868251453868713
-0.14663545777931986
0.5651888671843343
-0.7832879501071867
0.6458941110227185
0.09109288072806232
-0.6051770787562807
-0.5640982179943498
0.7242643722882878
-0.09474619380898475
0.18243710083649312
0.8389398784499039
-0.1788746355099441
0.047925754857799374
0.5083522937255243
0.8347286236170613
0.651285717838321
0.3887311580510391
-0.735279760341148
0.7708330803914932
0.49829383865533194
-0.718344101036605
-0.42947388332569647
0.21645451855786646
-0.827084908660497
-0.9203655661468138
-0.48506406446100847
-0.6183158013403603
-0.5349771725259782
0.6160846356290147
-0.5069166973595384
0.6657539189611554
-0.2682398325842452
0.5981215509102832
-0.7422320272746337
-0.08626034734040244
-0.3647431853352243
0.42753307120118045
0.7116746334234547
0.3304319850274414
-0.8482950472804967
-0.004361122194707856
0.3889142545054025
0.9460501345062057
0.19868251453868713
-0.14663545777931986
0.5651888671843343
-0.7832879501071867
0.6458941110227185
0.45325733187350503
-0.18372009603285067
-0.6008416408469675
0.9800905166532271
-0.7641503111258381
0.8101813767256354
0.9329080765509548
0.09955543288274182
-0.1162989684951867
0.050666034088129086
-0.5840254653967473
0.651285717838321
0.3887311580510391
-0.735279760341148
0.7708330803914932
0.49829383865533194
-0.718344101036605
-0.42947388332569647
0.21645451855786646
-0.827084908660497
-0.9203655661468138
-0.48506406446100847
-0.6183158013403603
-0.5349771725259782
0.6160846356290147
-0.5069166973595384
0.6657539189611554
-0.2682398325842452
0.5981215509102832
-0.7422320272746337
-0.08626034734040244
-0.3647431853352243
0.42753307120118045
0.9525980193737923
-0.09560905362226191
-0.907050902262737
-0.5097191226091745
0.3889142545054025
0.9460501345062057
0.19868251453868713
-0.14663545777931986
0.5651888671843343
-0.7832879501071867
0.6458941110227185
0.47159536470676133
-0.0923691105025789
-0.6008416408469675
0.9800905166532271
-0.7641503111258381
-0.22638239183364606
0.808874893314982
-0.6807213638294757
-0.1945314753420091
0.3942660735093405
0.35633419250627985
0.651285717838321
0.3887311580510391
-0.735279760341148
0.7708330803914932
0.49829383865533194
-0.718344101036605
-0.8861500597349824
-0.45719649077898006
-0.1745268637228068
0.5010000099659248
-0.8662932250507193
-0.40336755893627474
-0.5349771725259782
0.6160846356290147
-0.5069166973595384
0.6657539189611554
-0.2682398325842452
0.5981215509102832
-0.8346629415633138
-0.6440897211755355
-0.9685519893266813
0.06929018204065351
-0.3802457115570171
0.7388548932922621
-0.8482950472804967
-0.004361122194707856
0.3889142545054025
0.9460501345062057
0.19868251453868713
-0.14663545777931986
0.5651888671843343
-0.7832879501071867
0.07962368736154668
-0.07460364350899773
-0.6950102723314855
-0.5640982179943498
0.7242643722882878
-0.09474619380898475
0.18243710083649312
0.8389398784499039
-0.1788746355099441
0.047925754857799374
0.5083522937255243
0.8347286236170613
0.651285717838321
0.3887311580510391
-0.735279760341148
0.7708330803914932
0.49829383865533194
-0.718344101036605
-0.42947388332569647
0.21645451855786646
-0.827084908660497
-0.9203655661468138
-0.48506406446100847
-0.6183158013403603
-0.5349771725259782
0.6160846356290147
-0.5069166973595384
0.6657539189611554
-0.2682398325842452
0.5981215509102832
-0.7422320272746337
-0.08626034734040244
-0.3647431853352243
0.42753307120118045
0.7986265650764689
0.3304319850274414
-0.8482950472804967
-0.004361122194707856
0.3889142545054025
0.9460501345062057
0.19868251453868713
-0.14663545777931986
0.5651888671843343
-0.7832879501071867
0.6458941110227185
0.45325733187350503
-0.6051770787562807
-0.6008416408469675
0.9800905166532271
-0.7641503111258381
0.18243710083649312
0.8389398784499039
-0.1788746355099441
0.047925754857799374
0.5083522937255243
0.8347286236170613
0.651285717838321
0.3887311580510391
-0.735279760341148
0.7708330803914932
0.49829383865533194
-0.718344101036605
-0.9430151075598803
0.9359771940679963
-0.0970760371733631
-0.2155615214347516
-0.575824132539679
0.010311248579698118
-0.5349771725259782
0.6160846356290147
-0.5069166973595384
0.6657539189611554
-0.2682398325842452
0.5981215509102832
-0.38333735024313886
-0.8238731706047737
-0.9685519893266813
0.06929018204065351
0.7116746334234547
0.3304319850274414
-0.8482950472804967
-0.004361122194707856
0.08782509449902876
0.5541021864896271
-0.1036606354856936
0.03804897379986094
0.5651888671843343
-0.7832879501071867
0.6458941110227185
0.45325733187350503
-0.4736944671827862
-0.09082695339319624
0.9800905166532271
-0.7641503111258381
0.18243710083649312
0.8389398784499039
-0.1788746355099441
0.047925754857799374
0.5083522937255243
0.8347286236170613
0.651285717838321
0.3887311580510391
-0.735279760341148
0.7708330803914932
0.49829383865533194
-0.718344101036605
-0.42947388332569647
0.21645451855786646
0.21887056339725752
0.059629021562655815
-0.7454018565926052
-0.3817907038742946
-0.19095549627245256
0.8935053983290178
-0.7983072914874335
-0.7800298696546145
-0.9323489876045197
-0.420393033334163
-0.8346629415633138
-0.2606187577621626
-0.26474899014189457
-0.35378690669069524
0.7116746334234547
0.3304319850274414
-0.907050902262737
-0.5097191226091745
0.3889142545054025
0.9460501345062057
0.19868251453868713
-0.14663545777931986
0.5651888671843343
-0.7832879501071867
0.6458941110227185
0.45325733187350503
-0.6051770787562807
-0.6008416408469675
0.9800905166532271
-0.7641503111258381
0.18243710083649312
0.8389398784499039
-0.1788746355099441
0.047925754857799374
0.5083522937255243
0.8347286236170613
0.651285717838321
0.3887311580510391
-0.735279760341148
0.7708330803914932
0.49829383865533194
-0.718344101036605
-0.8861500597349824
-0.45719649077898006
-0.1745268637228068
-0.2155615214347516
-0.575824132539679
-0.3817907038742946
-0.298966309706162
-0.17848654039277678
-0.969490436342252
0.7521661017721888
-0.7233374845345272
0.9420147311019863
-0.6542264606234105
0.5018417279928061
-0.26996588992232784
0.11392809462672426
0.7116746334234547
0.3304319850274414
-0.8482950472804967
-0.004361122194707856
0.3889142545054025
0.9460501345062057
0.19868251453868713
-0.14663545777931986
0.5651888671843343
-0.7832879501071867
0.6458941110227185
0.45325733187350503
-0.6051770787562807
-0.6008416408469675
0.9800905166532271
-0.7641503111258381
0.18243710083649312
0.8389398784499039
-0.1788746355099441
0.047925754857799374
0.5083522937255243
0.8347286236170613
0.651285717838321
0.3887311580510391
-0.735279760341148
0.7708330803914932
0.49829383865533194
-0.718344101036605
-0.9430151075598803
0.9359771940679963
-0.0970760371733631
-0.2155615214347516
-0.575824132539679
0.010311248579698118
-0.5349771725259782
0.6160846356290147
-0.5069166973595384
0.0969998337927136
0.7550872210495265
-0.08222162490932072
-0.8346629415633138
-0.2606187577621626
-0.26474899014189457
-0.35378690669069524
0.7116746334234547
0.3304319850274414
-0.8482950472804967
-0.004361122194707856
0.3889142545054025
0.9460501345062057
0.19868251453868713
-0.14663545777931986
0.5651888671843343
-0.7832879501071867
0.6458941110227185
0.45325733187350503
-0.6051770787562807
-0.6008416408469675
0.9800905166532271
-0.7641503111258381
0.18243710083649312
0.8389398784499039
-0.1788746355099441
-0.09352629653257505
0.5083522937255243
0.8347286236170613
0.7577293457668389
-0.7796721492135953
-0.6117680609036114
0.7708330803914932
0.49829383865533194
-0.718344101036605
-0.42947388332569647
0.21645451855786646
-0.827084908660497
-0.9203655661468138
-0.48506406446100847
-0.6183158013403603
-0.5349771725259782
0.6160846356290147
-0.5069166973595384
0.6657539189611554
-0.2682398325842452
0.5981215509102832
-0.38333735024313886
-0.8238731706047737
-0.9685519893266813
0.06929018204065351
-0.09742372517392506
0.7388548932922621
-0.8482950472804967
-0.004361122194707856
0.3889142545054025
0.9460501345062057
0.19868251453868713
-0.14663545777931986
0.5651888671843343
-0.7832879501071867
0.6458941110227185
0.45325733187350503
-0.6051770787562807
-0.6008416408469675
0.9800905166532271
-0.7641503111258381
0.18243710083649312
0.8389398784499039
-0.1788746355099441
0.047925754857799374
0.5083522937255243
0.8347286236170613
0.651285717838321
0.3887311580510391
-0.735279760341148
0.7708330803914932
0.49829383865533194
-0.718344101036605
-0.42947388332569647
0.21645451855786646
-0.9222562793016729
-0.9203655661468138
-0.48506406446100847
-0.6183158013403603
-0.5349771725259782
0.6160846356290147
-0.5069166973595384
0.6657539189611554
-0.2682398325842452
0.5981215509102832
-0.7422320272746337
-0.08626034734040244
-0.3647431853352243
0.42753307120118045
0.7116746334234547
0.3304319850274414
-0.8482950472804967
-0.004361122194707856
0.3889142545054025
0.9460501345062057
0.19868251453868713
-0.14663545777931986
0.5651888671843343
-0.7832879501071867
0.6458941110227185
0.45325733187350503
-0.4736944671827862
-0.09082695339319624
0.9800905166532271
-0.7641503111258381
0.18243710083649312
0.8389398784499039
-0.1788746355099441
0.047925754857799374
0.5083522937255243
0.8347286236170613
0.651285717838321
0.3887311580510391
-0.735279760341148
0.7708330803914932
0.49829383865533194
-0.718344101036605
-0.42947388332569647
0.21645451855786646
-0.827084908660497
-0.9203655661468138
-0.48506406446100847
-0.6183158013403603
-0.298966309706162
-0.17848654039277678
-0.969490436342252
0.7521661017721888
-0.7233374845345272
0.9420147311019863
-0.8346629415633138
-0.2606187577621626
-0.26474899014189457
-0.35378690669069524
0.7116746334234547
0.3304319850274414
-0.993946304157131
-0.781969605428467
0.3889142545054025
0.9460501345062057
0.19868251453868713
-0.14663545777931986
0.5651888671843343
-0.7832879501071867
0.6458941110227185
0.45325733187350503
-0.18372009603285067
-0.6008416408469675
0.9800905166532271
-0.7641503111258381
0.18243710083649312
0.8389398784499039
-0.1788746355099441
0.047925754857799374
0.5083522937255243
0.8347286236170613
0.651285717838321
0.3887311580510391
-0.735279760341148
0.7708330803914932
0.49829383865533194
-0.718344101036605
-0.8861500597349824
-0.45719649077898006
-0.1745268637228068
-0.2155615214347516
-0.575824132539679
-0.3817907038742946
-0.298966309706162
-0.17848654039277678
-0.969490436342252
0.7521661017721888
-0.7233374845345272
0.9420147311019863
-0.38333735024313886
-0.8238731706047737
-0.9685519893266813
0.06929018204065351
0.7116746334234547
0.3304319850274414
-0.8482950472804967
-0.004361122194707856
0.3889142545054025
0.9460501345062057
0.19868251453868713
-0.14663545777931986
0.5651888671843343
-0.7832879501071867
0.6458941110227185
0.45325733187350503
-0.6051770787562807
-0.6008416408469675
0.9800905166532271
-0.7641503111258381
0.18243710083649312
0.8389398784499039
-0.1788746355099441
0.047925754857799374
0.5083522937255243
0.8347286236170613
0.651285717838321
0.3887311580510391
-0.735279760341148
0.7708330803914932
0.49829383865533194
-0.718344101036605
-0.5200035591122738
-0.718795670329
-0.02327312782902717
-0.2155615214347516
-0.575824132539679
0.010311248579698118
-0.5349771725259782
0.6160846356290147
-0.5069166973595384
0.6657539189611554
-0.2682398325842452
0.5981215509102832
-0.38333735024313886
-0.8238731706047737
-0.9685519893266813
0.06929018204065351
0.7116746334234547
0.3304319850274414
-0.993946304157131
-0.781969605428467
0.3889142545054025
0.9460501345062057
0.19868251453868713
-0.14663545777931986
0.5651888671843343
-0.7832879501071867
0.6458941110227185
0.45325733187350503
-0.6950102723314855
-0.5640982179943498
0.7242643722882878
-0.09474619380898475
0.18243710083649312
0.8389398784499039
-0.1788746355099441
0.047925754857799374
0.5083522937255243
0.8347286236170613
0.651285717838321
0.3887311580510391
-0.735279760341148
0.7708330803914932
0.49829383865533194
-0.718344101036605
-0.8861500597349824
-0.45719649077898006
-0.1745268637228068
